solver_type L2R_L2LOSS_SVC_DUAL
nr_class 10
label 5 0 4 1 9 2 3 6 7 8
nr_feature 780
bias -1
w
0 0 0 0 0 0 0 0 0 0 
0 0 0 0 0 0 0 0 0 0 
0 0 0 0 0 0 0 0 0 0 
0 0 0 0 0 0 0 0 0 0 
0 0 0 0 0 0 0 0 0 0 
0 0 0 0 0 0 0 0 0 0 
0 0 0 0 0 0 0 0 0 0 
0 0 0 0 0 0 0 0 0 0 
0 0 0 0 0 0 0 0 0 0 
0 0 0 0 0 0 0 0 0 0 
0 0 0 0 0 0 0 0 0 0 
0 0 0 0 0 0 0 0 0 0 
-1.694065894508601e-21 0 0 0 -5.759824041329242e-20 2.866050531624223e-05 1.01643953670516e-20 -3.726944967918921e-20 0 0 
-3.388131789017201e-21 0 0 0 -1.829591166069289e-19 0.0006190669148308329 -3.388131789017201e-21 5.082197683525802e-20 0 0 
0 0 0 0 0 0.0006190669148308329 0 3.388131789017201e-21 0 0 
0 0 0 0 0 2.5794454784618e-05 0 0 0 0 
0 0 0 0 0 0 0 0 0 0 
0 0 0 0 0 0 0 0 0 0 
0 0 0 0 0 0 0 0 0 0 
0 0 0 0 0 0 0 0 0 0 
0 0 0 0 0 0 0 0 0 0 
0 0 0 0 0 0 0 0 0 0 
0 0 0 0 0 0 0 0 0 0 
0 0 0 0 0 0 0 0 0 0 
0 0 0 0 0 0 0 0 0 0 
0 0 0 0 0 0 0 0 0 0 
0 0 0 0 0 0 0 0 0 0 
0 0 0 0 0 0 0 0 0 0 
0 0 0 0 0 0 0 0 0 0 
0 0 0 0 0 0 0 0 0 0 
0 0 0 0 0 0 0 0 0 0 
0 0 0 0 0 0 0 0 0 0 
0 0 0 0 0 0 0 0 0 0 
0 0 1.694065894508601e-21 0 0 0 0 -4.658681209898652e-21 0 0 
1.694065894508601e-21 0 -0.001011561889163373 0 0 -0.0004150296243672798 0 6.448893592890029e-07 0 0 
0 0 -0.001446356034505527 1.905824131322176e-21 0 -0.0003169609303596545 0 0.0002756011492509655 0 0 
0 0 3.303428494291771e-19 3.049318610115481e-20 6.352747104407253e-22 0.000644245392337055 0 0.002039658391729673 -3.388131789017201e-20 3.726944967918921e-20 
0 0 1.592421940838085e-19 7.115076756936123e-20 -1.270549420881451e-20 -0.001346728040527025 0 -0.0002740664901022219 -8.470329472543003e-21 -1.335081212444885e-05 
0 4.235164736271502e-22 2.344587197999903e-18 -2.371692252312041e-20 2.032879073410321e-20 -0.0002612415006730292 0 -0.001135655208027872 -1.694065894508601e-21 -0.0001098211965075636 
-3.388131789017201e-21 0.002894310429711922 8.538092108323347e-19 0 -0.0001879607136779449 0.001414540274984902 -3.388131789017201e-21 0.0006567008027094683 -0.0004916204877230309 -2.540961017233822e-05 
4.743384504624082e-20 0.006579013026935528 -0.0009702582297462692 9.317362419797304e-21 -0.0003715160981290638 -0.003989408469608139 -1.2842493693718e-05 0.001121866179804222 -0.0009894838032034653 3.388131789017201e-21 
7.115076756936123e-20 0.005175334716186481 -0.009408217337644803 -0.0001162040620688122 -0.0001527180798633301 -0.002020886312347707 -1.655093440806607e-05 0.0009355844152834158 -0.000400509498801314 -1.487025088330921e-06 
3.811648262644352e-21 -0.001096892499923542 0.007003426658386331 0.002690967984986651 -5.929230630780102e-21 -0.0001812480975963938 -0.0004720504700036318 -0.001572487488070114 -1.270549420881451e-21 -1.15124522967554e-06 
-9.100926142792771e-07 0.01022053032423399 -0.007431131231390905 0.002320590207768202 -0.0009958459874773019 -0.001676573347780808 -0.000550464767781348 0.0007297565566279662 0 -1.18584612615602e-20 
-4.711800976022454e-05 0.003234523571334936 -0.00258132546386208 -0.003762242761642623 -0.002721979032437954 0.001623949627191054 -8.45191389730359e-05 -0.002582976651065037 0 -1.355252715606881e-20 
-5.162030221088996e-05 0.004367276071769689 -0.0009666869077806712 -0.000505641080579194 -0.001294599783720498 -0.001326246025630837 -2.285219584632539e-05 0.0008010966590872664 0 -3.388131789017201e-20 
-0.0004656510552102539 -0.0003312814697216292 -0.0009224389700871413 -6.202119496913145e-07 -3.049318610115481e-20 0.000487066154640913 -5.801852831450485e-06 0.001050094601103641 0 -3.726944967918921e-20 
-0.0003571675998104678 0 -0.001799170779173639 0 -0.0002150815584744322 -0.001916185395803725 4.870439446712227e-21 0.002350702867247368 0 -1.524659305057741e-20 
-4.918037920109082e-05 0 -0.009621307576246832 0 -0.002283520921272724 -0.0007997047320448654 6.776263578034403e-21 0.0007664508884641929 0 3.388131789017201e-21 
-5.254521842027409e-06 0 -0.007397131790394053 0 -0.001658063934061449 -0.0001434936266426124 8.470329472543003e-22 6.400856587736316e-06 0 -1.355252715606881e-20 
-3.136751530310103e-06 0 -0.009252936450089462 0 -0.001860025567754225 -1.355252715606881e-20 0 1.397604362969596e-20 -7.623296525288703e-21 -8.886678019231822e-05 
-4.382553556532553e-06 0 -0.001855010061826515 0 -0.0001516325191103984 2.710505431213761e-20 0 0 1.01643953670516e-20 -0.0001241613879282743 
0 0 0 0 0 0 0 0 0 0 
0 0 0 0 0 0 0 0 0 0 
0 0 0 0 0 0 0 0 0 0 
0 0 0 0 0 0 0 0 0 0 
0 0 0 0 0 0 0 0 0 0 
0 0 0 0 0 0 0 0 0 0 
0 0 0 0 0 0 0 0 0 0 
-0.001497284280876053 6.219303063067277e-05 -0.00368771115377479 0 -2.553537054654873e-06 -1.424411530097277e-06 2.117582368135751e-22 -5.570324391668711e-05 -0.001169493244147669 0 
-0.0005393280837528852 2.144587263126644e-05 -0.0073213337330636 0 -8.805300188465289e-07 -0.001591605628765611 0 -4.115692373736156e-06 -0.0004032735324647141 -3.969022569149375e-05 
-0.0005103943804385567 -1.030682028617593e-05 4.235164736271502e-21 0 0 -7.010775126772102e-05 -1.07310392564381e-05 0.003245971802686955 0 -7.108697138775028e-06 
0 -0.0007627047011770187 -0.001319427599185052 0 0 0.0028223327695322 -5.580140413347814e-05 0.001964401563337622 -0.001311192962074718 1.01643953670516e-20 
-9.063053048640683e-05 0.005255023513076777 -0.01145411609062715 2.032879073410321e-20 -3.388131789017201e-21 -0.002818731739491085 -4.769350780639142e-05 -0.003100876313525396 -0.0004010707883993255 4.277516383634217e-20 
-0.001124478677392445 -0.001498157723468494 -0.00365271655398734 -0.0005193482408358303 1.228197773518735e-20 -0.0007775978641676748 -3.951363361989854e-05 0.00110355488334964 -2.710505431213761e-20 -2.540369165493347e-06 
-0.002731918736142488 -0.003450048127721056 -0.003027485846006585 -0.001119695748591012 -2.795208725939191e-20 0.0007856871122838728 -0.001019653291207058 -0.0003434519874582994 -5.76011887687648e-05 -0.0006549685797093914 
-0.002389680868904433 -0.003320615552544781 -0.0117769524748965 -0.0008883148951397927 -4.928010358246219e-05 -0.001824275265733792 -0.005208118532610438 0.002287714453537491 -0.0003110650550538296 -0.0008948310385677484 
-0.003746979951460098 -0.001291513125775034 -0.01296043352704609 -0.0003911675694427651 -0.0001692538717883116 -0.0003005103237387131 0.001382417442196843 -0.0005464251697448906 -0.0005386921414085478 -0.0007610270760267824 
-0.008713016271853127 -0.008736845327270645 -0.001174935260464222 -0.006491268525279461 -0.0003648720523386289 -9.827556062244407e-05 -0.0003506379425115896 0.0005844271325740666 -0.0009166832649716261 -0.004223548745973226 
-0.01138073661729073 0.002120809941097862 6.278347263025811e-06 0.007917301424084509 -0.0001551459239342029 -0.001206439458693789 -0.002119287195467181 0.0002550824583713958 -0.0003779501759512762 -0.002513180642262705 
-0.003565146505835495 -0.006744494972799052 -0.001059421401584317 -0.007898112005379977 -1.74019023727486e-05 -0.000612845398962136 0.003434549406488687 -0.0001755204767106403 -1.609362599783171e-20 -0.001765451408604801 
-0.001256624877241627 -0.005627520695179602 -0.00148397365231061 0.004221763525722766 -7.455603426129477e-06 -0.000591943508142395 -0.003774531543150996 -0.0004369501970803216 -0.0002614047642829079 -0.005153713514230045 
-0.001189873080990805 -0.002249893103228791 -0.00306962854341785 -0.00172567430299191 -0.0005002697253833234 -0.0008659738024660465 0.0004546544557532968 0.0008711432308679461 -0.0004182476228526536 -0.004997398333260395 
-0.0004693554011009722 -0.005913855524015989 -0.001778809386361678 0.002561566474408574 -0.006837906635353491 -0.0005022291485605136 -0.001295368648198793 -0.0003233394736489622 -8.713492142763573e-05 -0.00844457522628167 
-0.0002581192844944446 -0.00137740394386193 -0.005552942838662899 -0.00245499812137548 -0.001692508314142714 -0.0005450337856353457 -0.0007214944876253041 0.0008824074151701871 0 0.002916552441358989 
-0.0001091935578746874 -0.00231991840427171 -0.001173549086365978 0.003489409705195868 -0.000748053760944631 -0.001726720839488146 -0.002890517400247772 0.0003838935231868306 0 -0.006573550810656365 
-0.002129387548739326 -0.003069405309064181 -0.001781169783680744 -0.003077775401082715 -0.002185658859734012 -0.001689864867721845 -0.0002969483544170631 0.000234498791132762 0 -9.794830995539016e-05 
6.843559948057882e-05 -0.0008788594184641694 -0.001899841234196355 -0.001526400976632616 -0.00150750670722319 0.0008290599281511531 -0.001957437186049538 0.003218833197339804 0 -0.0002262310425779085 
-0.002173691896985335 -0.0001228043528237952 0.000633194467993709 -0.002581911436636781 -0.002304814290478054 -0.005492035607181259 -0.001418387200991417 -0.0004377718782372248 -7.623296525288703e-21 -0.0002297219216642905 
0.002002806279036821 -4.497055513183815e-07 -0.006030412076483178 -0.0008059877132060293 -0.0008794686108403095 0.00456143511900226 -1.79309218195833e-05 0.007726674910886574 -3.388131789017201e-21 -0.0003354853638014611 
-0.002095251429498171 5.293955920339377e-20 1.727947212398773e-19 -1.591197307072725e-05 0 0.004008132775157301 0 -0.003297420815427657 0 -0.002210488681654099 
1.270549420881451e-21 0 -9.317362419797304e-21 -8.470329472543003e-22 0 0.001890084484110083 0 -0.00472252731882085 0 -0.001428898370981366 
0 0 0 0 0 0 0 0 0 0 
0 0 0 0 0 0 0 0 0 0 
0 0 0 0 0 0 0 0 0 0 
0 0 0 0 0 0 0 0 0 0 
-3.388131789017201e-21 0 0 0.002383853789207181 0 -3.970466940254533e-22 -1.694065894508601e-21 -0.001861280049461131 0 -9.897290793245005e-06 
-0.009746697086906415 3.085382759635036e-05 -0.01068164610058905 0.0005675842355255176 -7.396452158310673e-06 0.0003054112673677605 -1.694065894508601e-21 0.003609849648802838 -0.003387497672703597 -2.356497807915481e-06 
0.0167095023938912 -0.0007615857590615231 -0.003560548700196352 -4.235164736271502e-20 -2.465484052770248e-06 -0.001352641021162119 -0.009888625460346627 0.009081572452128279 -0.001129165890901198 -7.108697138775001e-06 
-0.0008265274796108798 0.003467460838515114 6.098637220230962e-20 -0.006321435493121176 -0.001731499137257355 -0.003268465819158937 0.01036453436630234 -0.0060825153298131 -2.656283762431606e-05 -1.777174284694231e-06 
-0.001180677368910491 -0.003018348512909108 -0.007916791826376326 4.065758146820642e-20 -0.002280511058826764 -0.0003791397940538654 -0.007366525190838649 0.002392254268233342 -3.498520077348957e-05 -0.002204775129251276 
-0.004222232619266801 -0.006656081821788239 0.002099905018902188 0.001449638781971704 -0.0005771663790857855 0.0007836187715219975 -7.270467344602002e-05 0.002920302850415449 -8.854279208105807e-06 -0.005360746550714569 
0.003345346886041524 0.002218344637113796 -0.003989227682583348 -0.003904420115106556 -0.0009031064796615382 -0.001279183532263525 0.002371537924687178 -0.000304155616718345 -5.488773498207866e-19 0.0002683643016252988 
-0.005083255532022707 -0.003737748609907841 -0.005109924620430753 -0.004243921205719969 -0.001915078210877436 0.000844024360205505 -0.002650011036968534 0.0004316716180254475 -1.024021133666953e-05 -0.0005360966568076373 
0.002654780933674722 -0.003006651061673033 -0.0002876716183970051 -0.0004587942159402858 -0.001050041792051182 0.0004671469467795265 0.0007730738283244005 -0.0003183887545832725 -0.0002806857817590053 -5.290190121780659e-05 
-0.003054960195054108 0.0004849689482496215 -0.002758046621767752 -0.003408206784431633 -0.003645509635233716 0.0002709541314765556 -0.000513385886092852 0.0003300593068478973 -0.002451739827405458 -0.001141473031325174 
0.0006264492553711059 -0.002145530863352779 -0.001638717942551668 -0.0009873580253429665 -0.006869010482298341 -0.0001085493900286714 0.00124057924632848 -0.0001615384406368164 -0.003896389023826696 -0.001156825310180521 
-0.0005838477307126533 0.0008309055213759133 -0.007128042540925031 -0.0007402854115195974 -0.001547223733280463 0.0005479120018360528 -0.001185765218612926 7.615419710495729e-05 -0.004200831132573791 0.0006260190354346387 
-0.0004963502339954557 -0.0008022006898107549 -0.0008233722306421212 -0.002837140833412986 -0.00446226362275194 -6.53813797592737e-05 0.0004497488889734643 -0.0001977441499434239 -0.004929482847338916 -0.002199246662196864 
-0.0004877904637238412 -0.001333662639331836 -0.001716196604247041 0.0005488408072712252 -0.004362075465635491 -0.0001275106015270937 0.0002680294852077551 -0.0001839488037352558 -0.004075362190291916 -0.0004403098751341838 
-0.001082018373174206 -6.211816834318649e-05 -0.001186708807146216 -0.0009043411920473498 -0.00434182495002921 6.00457102277466e-05 0.0003117694221099337 -0.0006208454010087566 -0.003032306739124715 -0.001128501709147571 
-0.0006846763877773311 -0.0009851266520239845 -0.0004972259547827601 0.0009069800558748407 -0.002309584818255103 -0.000675468782102662 -0.0003457157375017538 3.198660918835489e-05 -0.0005548328814878462 -0.002952532642467239 
-0.0002914316223928484 -0.001535362817192375 -0.003282657570708179 -0.003606022843798047 -0.0009270462609697581 -0.0007387818899361938 0.001073605510735681 0.0001019202864171505 -0.0005074491991381882 -0.0005851882290827706 
-0.000159564255164896 -0.0007683667015009238 0.0006836852619530975 0.001491160534436737 -0.002955312032697782 -0.0007688835407504963 -0.001054729888737076 0.0004920365682939869 -4.873069223160398e-05 -0.001799212204490122 
-0.0001155731692595587 -0.0002746234619554771 -0.00221732012400081 -0.001757163169336669 -0.002230415605259312 0.0005813385668642951 0.001680236658100687 0.0001947099419448035 -0.000929547755438693 -0.000257857625321621 
-0.0005468077139815391 -0.002013873521992766 0.0006957438532185213 -2.379136493531514e-06 -0.004648687161807408 -0.0009891353985256885 -0.0007645471690811268 6.442301977779114e-05 -0.000619698503625794 -0.001413616774778085 
0.0002833339551500986 -0.001468807340459047 -0.001762996477236913 -0.0006292811045745187 -0.0006975095879078318 0.00230977513557254 -0.004501170491084555 0.0005266384696715321 1.694065894508601e-21 0.0003234875919262721 
-0.002277998229692703 -0.0007964954965856732 0.0005627580829439001 -0.0001340787319255956 -0.0001314148498956784 -0.003984800399308404 -0.01531367686384231 -0.0002246862173451827 -5.082197683525802e-21 0.002338955009181438 
-0.0007094762711763941 0.001801545588623974 -0.00680423290090352 -0.0009530312178747653 1.694065894508601e-21 -0.0004094511454862507 2.236166980751353e-19 0.005949372623590809 0 0.002630868338869201 
-0.001737397149074337 -0.005076215297851464 -0.001949600242974853 1.423015351387225e-19 0 0.002244506422923581 0 -0.007128387524152215 0 -0.001558468554476684 
-6.566501472165674e-05 -0.002236923199977688 -0.003559247538360083 -1.389134033497053e-19 0 0 0 0.01804015338394886 0 -2.117500099670975e-06 
0 0 0 0 0 0 0 0 0 0 
0 0 0 0 0 0 0 0 0 0 
4.235164736271502e-22 0 0 0 0 -4.32442010397286e-06 1.694065894508601e-21 0 0 0 
-0.006830654809104324 0 -7.835054762102278e-21 0.008173212991567445 0 -0.004373723423854037 -4.36190702647231e-06 -0.005948636479086115 0 0.003914365039940953 
-0.005267348785448914 -0.0002612601293860036 -0.002051072525272722 0.001204650952376349 5.082197683525802e-21 -0.004861188731846464 0.00273013421827025 0.00279611597592727 0.00490746294331462 -0.00095766368690884 
-0.002262606852562295 0.0003176666511901952 -0.003055018373316565 -0.004540849111419965 -1.865527711494379e-06 -0.002966004933572281 -0.00255563276895665 0.002368054118812013 0.009329038466499087 -0.009832170694981667 
-0.005161273918659885 -0.004159112221577452 0.004049585544977986 0.002736415070458189 -4.710457471523273e-05 -0.0001355786201643392 0.002064546076313652 0.002394454379497281 -0.001123545153455395 0.001951390162792836 
-0.0007922834794652331 -0.0001771836711565427 -0.006888950481703373 0.001439974287823506 -6.529346990230241e-06 0.0006537277367239104 -0.0003915719535578113 -0.005300947789066967 -0.006540579847086161 -0.001418970878993102 
0.0008765167132937767 -0.001165354824217223 0.003930788788036306 -0.008468082407048131 -0.006651943279562995 0.0008605098136455582 0.0002611241550655738 0.0001904525496596209 -0.006908564958915441 -0.0006407997370087803 
-0.002233614499418161 -0.001681766074650114 -0.002762670906102558 0.004956112117711449 -0.00675799724565021 -0.000210801183519422 0.0008313795252241016 -0.0005992447076150583 -0.002971334156474911 0.0004139093271027257 
-0.0003080034137973305 0.001572423029115666 0.0007497736899877381 -4.815415340080369e-05 -0.004468159704737084 0.001053640362149113 -0.0005997330827396214 -0.001230019887694898 0.0001184366955326597 1.889729075749366e-05 
-0.001343312452556973 -0.001244659912065467 -0.002365666869116662 -0.0001900135245280981 -0.000209211650585732 0.0003157999361025744 0.0007056255422837414 5.484090796586938e-06 -0.02268622164760072 -0.0004040190053935571 
0.0001537635603897949 0.0006124442154841331 -0.0001675263992664184 0.0001097432349875648 -0.0006540045912022611 0.0005849628782800877 -0.0001254820677266295 -0.0004021922433899185 0.002092155734728232 -9.246368667472846e-05 
-0.0002337409320714376 -0.0008427393629763095 -0.0008292105600005662 -0.0007100250379350564 -0.0008424338590793429 0.0004950039865767051 -2.553025085827792e-05 -0.00114536973175586 -0.0006376694032529418 0.0001214000772537381 
-0.0007335289611093734 0.0005159327361695217 0.001219530574176238 -0.0001488008030236731 -0.0007035742305642013 -0.0002951752771334861 -0.0003029140202233254 -0.0003475541561615896 -0.0003553046560849323 -0.000186277486207935 
0.0001536375844991086 -0.0009466215902312365 -0.001467738897436398 -0.000174251906829646 -0.0006225271868449686 0.0002318986022761431 -2.594213996268778e-05 -0.0005628722396702479 -0.000558692271302953 1.526189041324152e-05 
-3.48467020023516e-05 0.0006516452013504458 -0.001018760494879764 -0.0006995027544911045 -0.0008235737474949531 -0.0004966611763990015 -0.0003027529956289096 -0.0008473144026084081 -0.001532319044336416 -0.0001328398612600931 
-0.0001468330821042909 -0.0007570468781534166 -0.0001638651767414861 -0.0003872761916915628 -0.002103076939520326 0.000440256961252812 -1.64612708688059e-05 -0.0007707926578065631 -0.001137715304958753 0.0003629149944095874 
-0.0001471450697924899 0.0002092691195546112 -0.0004500559245120617 -0.0004653053954725441 -0.001764716105021952 -0.0006573276655737729 -0.0002775496376041598 -0.0001219548987157539 -0.006803732924119675 -0.0005332145842629753 
0.0004382076322010334 -0.0001613964749656095 -0.0001747360867090507 -0.0009875089995716698 -0.0008373539222986359 -0.0002298372089401376 0.0008457745237928968 -0.0008328980560877426 -0.004205812969325979 -0.000316571081535136 
-0.0004230893682089831 0.0002647749563039553 -0.0001292551170329616 0.0002061813341474904 -0.002692991979914223 -0.000636604725170845 -0.000204136301696402 0.0001023936648123149 -0.001106360148183384 -0.0002129467135110132 
-0.001160448443311488 -0.0002995234585125907 0.0006571057487387232 -0.0002150208015251325 0.000245203388770495 -0.0002508659871783507 0.0005380645051230648 0.0001524155229206925 -0.004588449021818214 0.0001630890527236073 
0.0006129332314101117 0.0003540843622093969 -0.0001748193627873401 0.0006937767158790205 -0.007652723398224824 -0.001024879718264062 -0.001013908311901166 -0.0001156533618016829 0.002385400351365233 -0.0009895603219011305 
-0.0006026656117455543 -0.001032675942943682 0.001012691948485823 -0.001813265733698078 -0.006758707063845181 -0.001333325308873269 0.001702766586824663 6.911013755894319e-05 -0.003073918083334682 -0.0002694851121499726 
0.000446407822930853 0.000297967978203185 0.0008413792935699014 0.002151461494507381 -1.108084309473133e-05 -0.00269335525550589 -0.005999753994656894 -0.0007205300889973921 -1.084202172485504e-19 -0.002161358895541582 
0.001415775828594304 -0.001862084485923619 0.0006242945504383666 -0.007393587116313037 6.140988867593677e-20 -0.00803746844493565 -0.001503811888470932 -0.002875479370363588 -1.355252715606881e-20 0.001646626130316888 
0.0003669360235556965 0.003940671073418086 0.002547991360430124 -0.01082294302036864 -6.776263578034403e-21 0.006561402058496095 0 0.0007212506517981288 0 0.0004973318172403088 
-0.001443378592707544 -0.0007139116595673474 -0.004967549889088323 5.433716356636337e-19 -6.776263578034403e-21 -0.001036544496197422 0 -0.008072754456572986 1.694065894508601e-21 0.001284464893437581 
-0.005644825711282128 0 -1.948175778684891e-20 7.580944877925988e-20 0 -0.001036544496197422 0 0.01608918032683235 0 0.003152519005123854 
0 0 0 0 0 0 0 0 0 0 
0 0 0 0 0 0 0 0 0 0 
-0.002276884936368111 -0.001428476001901058 -0.005845927752609415 -0.0001056631083684465 0 -0.001252743654524962 -0.005587329727021058 0.0007631479281037314 -6.776263578034403e-21 -0.0006254849593804184 
0.008150514710760332 -0.002050841029766097 0.004824733783010243 -0.0005018823972530581 -0.003125821547252973 -0.0001833605530152022 0.0002532486827650342 -0.005505585950589211 0.001676818957005366 -0.00173759897167186 
-0.01186347548580606 -0.0005574775416939737 -0.001977952715303563 0.008018130243796183 -1.694065894508601e-21 0.001835159390363051 0.0009650217752016866 -0.0007670452485773889 -0.01592869165684979 -0.002368500272555047 
-0.0001429550265408597 -0.002909153781423355 0.0001723234254364337 0.004676585642849392 -1.608515566835916e-18 -0.000313261993378023 0.0009569354966114478 -0.001857672035282821 0.006853242515973402 -0.00267890394579076 
-0.001137730628924218 0.004193661581464682 0.001169015680844532 -0.0008972404630399098 -0.01034814188205995 -0.000620664516291085 0.0003035679616488486 0.00323363685887568 -0.001365000354273988 -0.0005165199321693152 
-0.0002221230767594687 -0.001085784492520546 -0.0009566692573046165 -0.001105677962264777 -0.0009772741246638001 -0.0002473677306347493 0.0004390790796213919 -0.002933706419096288 -0.0005067092546924129 0.000644045053978714 
-0.0002725022711436736 1.24412058777332e-05 0.0009696148053046125 -0.002773855332336263 -0.0002474576747148086 0.0002356228546202939 0.0002089898112179472 0.002514623391608537 0.001271216593416067 -0.0008691188914113504 
0.0001655377328560145 -4.584189950894318e-05 -0.0005747849544293002 -0.001333483715478703 -0.0005959857365544811 -0.0004931815453934462 -0.0001334724732656138 -0.001164875918543302 0.0001507792688090655 -0.0002769704078575886 
-0.0004769960362404234 0.001299758420301781 -0.00018638696858434 0.0001865723426222497 -0.001001147403411673 0.0005328059078480683 0.0001234504964848141 0.000302337419568426 -0.0002566840633415005 -0.0006018106909881844 
-0.0001020442227947103 -0.0003945280194640737 -0.0003251528719545043 -0.002054458834488381 0.0008419118329000083 -9.954353651456694e-05 -7.834621573640091e-05 -0.001193126989044304 -0.0004303069160652033 6.426350540067616e-05 
-0.0006248459801027733 -0.0003482169159538614 0.0001145675591112619 -0.00122976868405287 -0.0005959028588572846 6.167099760580181e-05 0.0003699653746543059 -0.0004462335875790122 -0.0006557487058497567 -0.0007231804468319018 
0.0002551573012067599 0.0003719661386400691 -0.001366025799202883 -0.0003533874387539956 0.0002228101798904599 0.000346492595551679 0.0001470546202909655 -0.001119976530058298 9.583204918185831e-05 0.0005701425807151315 
-0.0002700424319588492 -0.0003598684163283439 0.000151075211545071 -0.001192428419681281 -0.001587431851076404 -0.0002407892567891332 0.0001532506097327709 -7.224068400984373e-05 -0.0004440951192474902 0.0006972268031421889 
-0.0004411076218546809 0.0006366612008993598 1.638129921069286e-05 -0.0002433183681064531 -0.0002453166659301283 0.0005351704299777287 0.0001447060689659506 -0.0007112749625117966 -3.755717062675634e-05 0.0002223448124457546 
0.0001808103567151112 -0.0004883147254667196 0.0004042749803546738 -0.0001811550909123735 -0.001830463131472834 4.6316397642311e-05 -0.0004740200548409369 -6.215153736955517e-05 0.0001188604313060243 0.0001213661765183258 
0.0004123816118392498 0.0002844376775597682 0.0001960567451462867 -0.001000601103271146 -0.0009880588098486556 -0.0001240350190919922 -0.0003378710419764942 -0.0003436908383357385 -0.001566099359754494 0.0004186892454367168 
-9.426941631090803e-05 0.0001532262218195599 0.0005568468360264974 0.0002384719025909748 -0.001464294138797324 0.0003596077971964465 -0.0005568149438337857 0.0002897919120448617 -0.0005976554970003926 0.0002763827647076733 
-0.0002205860326775042 -0.0003324921217470981 0.0001800038680684599 -6.420066007705648e-05 -0.001276523774613822 0.0001843305768769478 -8.042804044008407e-05 -9.687204008121029e-05 -0.002017024586502513 0.0001681886573767475 
0.001054591100386484 6.375658244625356e-05 -0.0001409316513121448 -7.987374795779427e-06 -0.0006090462510263622 -0.000225639893143424 -0.0002963084419096754 0.0007171009530894725 -0.002560226493235943 -0.0005437648730227822 
-0.0001183543463679393 -0.000864349542589952 0.0002099353038919784 0.0001965355714392695 -0.001531932453325817 -0.0002563599994113313 -0.0007641056992292912 0.0004872248595374569 -0.000434317909467629 -0.0006167297664174925 
0.00104113293001183 -0.0002971074603182777 -0.0002667684830403186 0.001647047317290211 -0.001289173904195775 8.718088318684731e-05 -0.0009283490914861038 -0.001414912194571712 -0.003170647583281336 -0.000335833370648654 
-9.070325412589971e-05 -0.0007916470919389281 0.0001450306581175185 -0.001010042094782984 -0.008458505245637403 0.0004233314426001494 0.0006766526442775092 0.00144272229996858 -0.01069889629943204 -0.0005407770744809874 
0.0002075509957590979 -0.0003394572742758189 -0.000451462700745899 0.005266354411159085 -0.006649837674039376 -0.003264114883298632 -0.002214561952188023 0.0009626001197544117 -1.143986034961515e-07 -0.001259755300665759 
-0.0002657407760936547 -0.007805666840846931 -0.000533025159245022 -0.007031413928663056 -0.003208447544326028 0.002245034674080529 -6.000726624680437e-05 -0.001784314023224632 -1.541599964002827e-19 0.001131561518854961 
0.0008982175851473911 -4.986906476959693e-20 -0.003608212197426782 -2.429846970080828e-06 -1.01643953670516e-20 -0.003491911067164481 -1.537439631979423e-05 0.002714871057477871 3.726944967918921e-20 -0.0006267079288293131 
-0.002364377528389757 -2.286988957586611e-20 3.769296615281637e-20 -3.134021904840911e-20 0 -0.001530137113434292 0 0.0152168670373099 3.388131789017201e-21 -0.007362922002294123 
0 0 0 0 0 0 0 0 0 0 
-1.508777437296722e-21 4.235164736271502e-22 0 0 -0.0004359897979676632 -3.890014073848181e-06 1.416662604282817e-19 0 3.176373552203626e-22 -1.521137807103058e-06 
0.003984106218390326 -0.00180211715284025 -1.147729643529577e-19 -0.0005647584418740408 -0.001183400880197944 -0.009412670776673442 0.0009609712878233558 6.532229496831288e-06 0.0004104547483083604 -1.319425549813986e-05 
-0.005612070420259951 -0.0009238365332298341 -0.002762345427381986 0.004471266229679354 -0.00384605794197776 -0.0005987495595563838 0.001377961113673185 -0.002278697804418765 0.004526961510875653 -0.0006518256942728622 
0.002554203070562505 -0.002137278362554478 0.001806932587283195 -0.002533474650594715 -0.001907521055990505 -0.0008772390958595404 0.0008100888186890385 -0.0001667437057407694 0.0003188405234031954 -0.004692693657153293 
0.0004174202521559327 -0.001396238255473774 0.0001346020834465686 -0.008495258098342258 -0.01195816951473082 -0.0003495472242175183 -6.886417574125588e-05 -0.001380069166226424 9.75635447063056e-05 0.001986206270247109 
-0.0001588671252544693 -0.001424922982102353 -0.001308500715643236 0.008708835974244655 -0.0002283206051794976 -0.0005302306665136475 0.00027627400729019 -0.001032143463924771 -1.993617689495977e-05 -0.0009125715148434332 
-0.0004072581396159762 -0.0002708790847870675 -0.0003810396973311373 -0.004249521186667885 -0.001773147864968478 0.0001088518134149328 -0.0006907138338393547 -0.0004523587574234218 0.0003485503378119054 -0.00067684762935765 
-8.912128892133068e-05 -2.50473102679577e-06 6.17219119198673e-06 -0.0006126629578268639 -0.0002694699584660588 -7.48919480023967e-06 1.735650269652203e-05 -0.00113787172842876 0.0008165556657473665 0.0003703251899318137 
-0.0001732512533909231 -0.001413460934755275 -0.0004396842114369405 -0.000806740456442508 0.0003452632829988853 -4.222115230994873e-06 0.001277929464657143 -0.0001984031830121413 -0.0003123188577521644 -0.0001541816935221021 
-0.000378746908269116 0.0002799314994354329 -0.0003344363843352926 -0.0004358207351707851 -0.0002603745577224749 0.00015968359229915 0.0003216400939595468 -0.000774930036116441 0.0002339151904181442 -0.0004194574282709686 
-6.185537609453797e-06 -0.0004015615496045985 -0.0003521170395926065 0.0004871999065278788 -0.0005540742770464078 0.0001551945881195655 0.0004145855275023941 7.009079654184811e-05 0.00065832039081359 -0.0003069484387605438 
0.000126899920949465 1.893761954978037e-05 -0.001070613928105195 -0.0005495262515534503 0.0002855260605108083 -8.731594018091652e-05 0.0004599449433446301 -0.0004733308734987662 0.0006106575743696048 0.0003918903437455568 
-2.82026312289654e-05 0.001031262522571631 -0.0009759388290642523 -0.0002637039759613444 0.0001186717163685041 0.0005180605121300355 0.0004246817427967139 -0.0002677063750144149 2.637974729731036e-05 0.0002128411802595679 
0.0001248079761535893 -0.0006195638853121558 -0.001439665147770283 -0.0001140741058488703 0.001277138005687694 -0.0001124296008495053 -0.0003039851042503964 -0.0005184926385851039 -0.0002001218521674235 -0.0006158339803840952 
-0.0004770452395671793 0.0001931737172971637 -0.0009783226578294417 -0.001110604997057398 7.111429640485072e-05 0.0004204382986802044 0.0004912191564242072 -9.988015911424688e-05 4.645080899027138e-05 0.0005146303521146164 
-0.0002730597542697114 -8.150042523235005e-05 -0.0008903805942203541 -0.0008980276676304479 0.001106691720130023 0.0001726102249624433 0.000984772972417985 -0.0007318064265709701 -0.0001877787343607119 -0.0004264193854268982 
-0.0005489936668854139 0.0001569961376055925 -0.0009788903706559112 -0.001205397252456596 8.089628839497983e-05 0.0002435895073812307 -1.737721525433888e-05 9.065286281721209e-05 0.0005976612383531077 0.0004581197548973447 
-0.0006390404091000478 1.236124356203649e-05 -0.0008836441262091933 3.857101628900288e-05 0.0005703553434803593 0.0004295236082316771 0.0001953575033787951 -0.0008599817284655696 -0.0004170043680253869 -1.34583184955968e-05 
-9.361599838876666e-05 0.0007657675982888507 -0.0004453399246720272 -0.0006220536627277373 -0.0004544015051128721 0.0002889809570370701 -0.0006405162464059058 -0.0003261931567032319 0.0004965560643518048 0.000359957369811412 
-4.777995597066723e-05 -0.0004295565168222245 -0.0002537839240747919 -8.337829729123327e-05 -9.846989033628732e-05 -0.0002277098477284654 -0.0001212358956324265 -0.0006174653688843602 -0.0008952196460730259 -0.0001580561502524061 
-0.0003096667659303361 0.0008017435070421626 -4.401469699113531e-05 -0.0004553758927154554 0.0002389068107261381 0.0002167382256416381 0.001138539073466019 -0.0007181077281494284 0.0002072773366504223 -0.0003226225713162586 
0.0001586286580839097 0.0009395247473958641 -0.0002093925465547068 -0.001061460399979052 -0.0008245220882438268 -0.000301046894550449 -0.0002740747541955866 0.0008348738788343239 0.0001623905853586772 -0.0002796777151357486 
0.0005426266362006284 -0.0001394039938599285 0.0007353835874067129 0.001745011584022634 -0.00103906568367417 -0.0001450418654199506 -0.001407948574295868 -0.0004379504114983324 -0.00237311613887115 -0.0003651181857289025 
0.001068822782915787 -0.002312056019175314 -0.0002949738518005823 -0.004122478467743603 8.590826204763837e-05 -0.001916906874654935 6.189036065961073e-05 -0.002333625535117282 -0.001364239605708137 -0.0005358236374262065 
-0.0001797344576626257 -0.009484556146586842 -0.001194145481197302 -0.01875908482110944 0.0001990357919361388 -0.0006225241895550269 -0.00493718110276169 0.0001585320970834043 -0.002528832737409391 0.0003761463693076901 
0.001254633273747285 -0.002236514105204874 0.0009422714172851539 1.287490079826537e-19 -0.002596664715984374 0.0005118462004038058 -0.001441895911787855 -0.006513160199411216 -0.01004143340685593 -0.001290068406455184 
-0.0004241193252106556 -0.0009384719538841054 -0.0006160953625493895 0 -5.302573676407694e-06 0 1.694065894508601e-21 0.006222142096628028 -1.050320854595332e-19 0.004057312895361377 
0 0 0 0 0 0 -3.388131789017201e-21 0 0 0 
-1.243522956567396e-05 -0.0001191121205096688 -6.352747104407253e-20 -0.00651012698237782 -0.008973873593162049 -0.0006676930513390292 0.007079259680466022 0 0.003066181231825693 -0.002301577342433812 
0.001630198806849419 -0.003194934677419843 -0.002794990989609911 -0.001886618355265422 -0.001185693147810943 0.007262855944524446 -0.00257859685922083 -6.776263578034403e-21 -0.003314812831474138 -0.007009042290169633 
-0.002249078263212087 -0.005026386156120113 -0.001539394017053566 -0.008493932511572811 0.002752666312382228 0.002164549554708231 -8.753766708517756e-05 -0.005659639889804155 0.001647064491763241 -0.003630863042621693 
-0.00433863226438669 0.001587548580669252 -0.001935667429289078 0.01065270536389978 -0.002008375987149293 0.0005090673633658193 0.00077053188820431 0.001579766677706505 -0.0006045216343427543 0.0008671555066167431 
0.0002922547382336125 0.001232687503901602 0.001812346300521617 -0.004104118068512574 -0.00427815030370905 -0.0001140895858305506 0.0003016227528812015 0.003177068033091255 -0.0006549415424242667 -0.001444444820214818 
-0.0001030255106729658 0.0009973390774198718 -0.0001672573916414361 -0.004087727192117149 -0.0004580840531897021 0.001337410333781719 0.0006675386750999679 -0.0024081698672651 0.001400169248695028 1.904587755586095e-05 
0.000177351410182044 -2.019622338351433e-05 0.0007066311074165342 0.005646293389108916 -0.0002447029695846072 -0.0007062745089029982 0.0002305092294320272 0.001601670508808019 0.0001878847077065466 -0.0003784209555668081 
0.0005107571130398753 -0.0008963294580645947 -0.0002374850053323937 -0.004311129597146349 0.0005387954770624513 0.001019978193090343 0.0001863357727783301 -0.0005961242795596555 -0.0003609239880389162 0.0003547496007452705 
-0.0004045698562004161 0.0004308859572452577 0.0004219188797550493 0.00125527596256202 -0.0008663830003825122 -0.0003459226310972446 -0.0001132287068421481 0.0006185974876773642 0.0008653817014890959 5.705079058464287e-05 
0.000278892908256765 -7.639297879055086e-05 -6.377356180040326e-05 -0.0004366700173526622 -0.0003411913323707224 -0.000480480890449253 -0.0002440960010722539 8.614422588052583e-06 0.0008285272269891568 -0.0002057913648897394 
0.0001931135790202382 0.0009643412769216118 0.0002007270909717206 -0.001023464602240571 0.0003060599205969544 0.0005232799256250278 -0.0002983902292131277 -0.0001678782899698218 -0.0001793099761265254 0.0002179938168119648 
-5.685442762089e-05 -0.0005950419760221981 -0.0008413211405380774 0.0007695098618467027 0.0006273371277558506 -0.0004577512869688357 0.000148090728554997 -0.0001897424824343588 0.000628743654380441 -0.0001065788911635296 
-0.0002646345387285296 0.0004105152781812866 -0.0004051916343064726 -0.00111801082553534 0.0004829138846606227 0.0004337132246853777 -0.0002606549244216093 -0.0004949848868504763 1.255227680524979e-05 -3.194803700762965e-05 
-0.0001147462557206486 0.0004163275067858793 -0.0003007084714934388 0.0003412416196889049 0.0006114887614245754 0.0001390861498737179 0.0004915724490049522 -0.000435944684850973 -0.000221243413140668 -0.0007427978726762695 
-0.0002323538275041523 -0.0001390492802433731 -0.001009233676950292 -0.0008938984616360037 0.0008259587814434586 -0.0002216844378916816 0.000447147652599334 9.511995497211326e-05 -0.0002457428972596987 0.0002386956026630828 
-7.703670590032922e-06 -0.0006828103363368401 -0.0005462076773834947 0.0002257685554385379 0.0001390919969054396 0.000289947389383202 -0.0001319563559624891 -0.0008295152001640678 0.0003443748225154401 0.0002214794048494055 
-0.0001406093407691039 0.000801059062001485 -0.0005164003168653618 -3.188546027352486e-05 8.565492307631026e-06 -0.0008911145118783658 0.000220712555535751 -0.000195527734313231 0.0004135383563264657 -0.0005855171046005954 
0.0003249068432217831 -0.0001667468343208008 -0.0003436188935029885 -0.0002622549269639132 0.0004299120424222907 -0.0002109128130395198 -0.0003890166519157599 -0.0006331142858171808 0.0002595159626587516 -5.497345171550527e-05 
-0.0002027839712473021 0.0004466871028832211 -0.000442253029159732 -0.0009294083565540606 -0.0001533848957034686 -0.0003687250667181811 -0.0001242288332726906 -0.000361985235348753 0.0002489624687949734 -0.0004640138206194685 
-0.0001666755106565466 -8.417289367081338e-05 0.0002435901371641567 0.0009074164882292448 0.0001904957017249276 -9.500026203173296e-05 0.0003852316986667666 -0.0006096731339409334 0.0001827039749163755 0.0002900153699809649 
0.0002385538906119784 -1.407898989222147e-05 -1.292691386684095e-05 0.0008088507143522762 -0.0001947380425399638 -5.89485570355423e-05 -0.001034167883636922 -2.222206286603172e-05 0.0007235591919494084 0.0003086027231299905 
0.0003769088162699788 -0.0006867749092323354 3.586900937459807e-05 -0.0009490727853479015 -0.0006182619157798942 0.0005702851017054316 -0.0005465002729206284 -0.00258958131354341 -0.0002695613071899915 -0.0001568268353042157 
0.0002118847577036683 0.0004413086987205525 0.001569049606269585 -0.0009022997098086544 -5.789947428891021e-05 -0.002487270483575214 0.0004494721962979441 -0.0006014195519319022 4.28713662146047e-05 0.0007415193416481085 
0.0009192059423236277 -0.001182067310053055 -0.001271523212657769 -0.001129278529005954 -0.003071253731060204 -0.002316506487155815 -0.002096271258207467 0.002480188173860148 0.0005714979335861934 -0.0003234457776186976 
0.001653718211707928 6.953050883183815e-05 -0.001324927598651612 -0.004418217748734849 -0.002510717145324558 0.005578544526624338 -0.003334073999686162 -0.0003557732160354452 -0.001606100070602296 -0.001586701065664349 
-0.001842419997404921 -0.003269183456771655 0.0004763827389884164 2.009936004750327e-06 -0.00503548236904702 -0.005782849541916672 -0.001063442511863467 0.002713359880162621 -0.001085217593460889 -0.0003406324862864615 
0.003415731379631269 -5.339675938052916e-06 -0.001106861670463954 -5.082197683525802e-21 -0.0008117571016426144 0 -8.591115325518078e-06 -0.002769791865297837 -0.0003167776579776173 -0.002727559676408029 
0 0.01114986226401306 -0.00281628428387565 0 -0.0053741984691163 -0.001698142933205396 -1.01643953670516e-20 0 -0.006937204187332427 -1.694065894508601e-21 
-6.471708119898609e-07 -0.0001633761681050659 -0.01324259075054673 -0.005326467531036413 -0.004593932962166968 0.002918552858186426 -0.00384305940469615 0 0.006758380279259469 -0.003274371225375528 
-0.002398843501956649 -0.0003976724011357093 -0.001017521575578045 -0.001517870222190817 -0.003181208243137852 -0.002962877603629395 -0.002295398603475455 2.032879073410321e-20 0.001804773090265301 -0.002685933266858025 
-0.001119527328382662 0.004873009899336188 0.003290693296421959 -0.003005124969237519 -0.008884220607241455 -0.003027604579015571 0.0008548603172407995 -0.008942103120540845 0.0001106442492006467 0.0006951158646421021 
-0.001691421464835384 -0.002718117924305459 -0.0002025896210278479 -0.003472780756883486 0.0008793457849129035 8.708403299708149e-05 0.0005004899413116684 -0.003451584429909156 4.48469925694864e-05 0.00110026627211021 
-0.0003999187691999063 -0.001763940189709976 0.0002888714226126033 -0.0004359667797549417 0.00224927745754901 -8.661167862659578e-05 0.0001343962846924546 -0.001638158190434189 3.863695798703189e-05 -0.000958479247616869 
-0.0006186547539988515 -0.0002950754287694374 -0.0001932735534427453 -0.004469945195401146 -0.0002770435543879396 -0.0001661092093324205 -0.0001539970499394438 0.0003789351206434335 -0.0001358214015345369 0.0003715751511469086 
-0.0005594930586047397 0.0005048581612269896 0.0003925974278186161 -0.002945391240482099 -0.0008314881708214458 0.0002028237720241611 2.510986416307795e-05 -0.0009689338472842999 0.0007452575113638532 0.0005357940188700347 
6.191018318339928e-05 4.655790457669927e-05 -0.001593155600911948 0.00103731485759269 6.800590443770269e-05 -0.000261818487467112 -0.0002480293607213971 -0.00104680673830034 0.0006646487401006511 -0.0001794795562220396 
9.028978109459816e-05 -2.200196756075293e-05 0.000271806846071653 -0.002206656922897537 -6.098619190265557e-05 0.0002396090409062164 -0.0005665602058671806 -0.0007415012074101325 -0.0002901311276517917 0.0001876627416713307 
0.0005640469850747662 -0.0002188914103867579 -0.0005951135618597481 0.0005753282035450462 -0.0001793682233025497 0.0005150780078367931 0.0003931474411810654 -0.0004064366743642709 5.843893315959632e-05 0.0004745242132214502 
0.0005226306642429918 -0.0003110422262690421 -0.0003695396611780105 -0.0006649753438110458 -0.0005126319361084421 0.0001453228168851261 0.0001577777292053541 -8.235793054839113e-05 0.0005184293207392419 0.000329761478090464 
-0.0005693210997993568 0.0009802317453148398 -0.0006495094626639106 0.0002080941999731869 4.705124400093127e-05 -5.178176644469251e-05 0.0003098550973249718 -0.001039259102383793 0.0003241644289817972 -0.0005134903339983408 
-0.0004960924704085292 -0.0007220486389078406 -0.0004389834559435247 0.0006499191779967375 -0.0001410144942141306 -1.796185716835373e-05 -0.0002773287636096665 6.736524228169262e-05 -0.0005317562598470211 -3.96818520752999e-05 
-2.521039735512639e-05 0.0004114212734040758 -0.0008770345577238069 -0.0005395495538576024 8.223733165994578e-05 0.0001400029524909075 0.0002248362322691088 -0.000649133067982072 -0.0001664724815287728 -6.251515281738108e-05 
-0.0003363465098263719 0.0001268404782932437 -0.0004298648604333672 0.0005334283206026273 8.938633152634902e-05 1.357694648080186e-05 -5.069040808352743e-05 -0.0007930103475758386 0.0003376796265015611 -0.0001377137901948984 
-0.0005279450518096265 0.00109388157480907 -0.000741184663312104 -0.0009709871215652027 0.0001969555585650981 -0.0001811813383114481 0.0005062727150860802 0.0001346944256181132 0.0006377737081953852 0.0009087703841501769 
-0.0002875540489724693 0.0002844767512987483 -0.0001748273287809627 0.0007750146484294354 -0.0002146034462762762 0.0007361322198627319 -9.831176876922711e-05 -0.000703368718320338 0.0002255502819980775 -0.0007313194007681172 
-0.000677890102551385 0.0002719228453132528 -0.0002743719033924904 -0.0001550609753484272 -0.0001172432085352691 -7.154540531389206e-05 0.000776226352178732 -0.001219054224059864 0.0003521737489092776 -0.0004995391192037493 
0.000134963172921341 -0.0002174348648092496 -8.994077183662697e-05 0.0006511490011798317 -5.071010886509129e-05 -9.087139540527283e-05 -0.0001205160463138267 -0.001101992655846122 0.0003084356766790068 0.000466092105142255 
0.000563554812539362 0.0002798286767905288 -0.0003649630990593627 -0.001544551034733174 -0.0004436169224441316 0.000324581163878821 8.118739098103049e-05 -0.001250615467069424 0.0008010850070408132 -0.000177842085998344 
0.0003887865174953563 0.0005438696861134302 -9.369947978959823e-05 -0.0006114061899734438 0.0002256940434664412 -0.0001534793353938725 -0.0002130653768453645 -0.002334298753162235 -0.0007680970693074464 0.0004293594354273672 
-0.0001286322384818533 0.0003808561555455753 -0.0005245973322878056 5.182495239545628e-05 -0.0002920961857136855 -0.0005560660501310692 0.0004878944050008477 0.0005102512371836941 -0.0001944789070649385 0.0007609366712193522 
0.0006758236514240851 -0.0003039035938869068 -0.001273166068290722 0.0004706296514114922 -0.0006136174218053338 0.001440483734039425 -0.001879661726635692 -0.00329021545354932 0.0005214360431417441 -0.0004912766587989415 
0.001504068182284509 -0.001105706641085147 0.000436913836475413 -0.007149119701749243 -0.0002224598417680595 -0.002816765964772888 -0.002306622946937244 -0.0046924164890216 -0.0009574296257260738 -0.0002931337974381575 
0.001290392412254952 -0.006135127685906378 0.0002918530536278029 -0.006495398109335684 0.0009648205494176297 -0.006642346970407756 -0.002262979932500797 -0.001207618251878604 -0.001420755974641204 -0.001437751872659696 
0.0006975652321214315 -0.001391216239914837 -0.001791538463910881 1.524659305057741e-20 -0.004607086809840318 -0.001575486473559298 3.388131789017201e-21 0.005601621839651924 -0.003114917732923488 0.0002020402085279733 
-0.002799102184660878 -1.220497357269243e-05 -0.003612756947601217 0 -0.001426471696943199 0 -2.001813279732368e-06 -0.01072850976101315 3.049318610115481e-20 0.004017880706294025 
1.355252715606881e-20 -6.776263578034403e-21 -0.0004384816735891474 8.131516293641283e-20 -1.368723614775471e-05 -1.694065894508601e-21 -6.169328615517032e-06 0 1.652100086675502e-05 2.032879073410321e-20 
-7.42136094184007e-07 -0.000369023135091838 -0.002653755431481082 -0.01267396844969921 -0.001430855874892798 -0.002527218352891355 -0.0003014052513109257 -5.082197683525802e-21 0.003173017841048842 -0.008565232209138615 
-0.003249410298353537 -0.0009298256251828791 0.005338858672924757 -0.000986186867525106 -0.00415289090242379 -0.001879600452727325 -0.0004015857643303717 -0.0008344290382839053 -0.001907738710444302 -0.003924235726083857 
-0.006692127417295721 0.0006853281445177458 -0.002016825040393129 -0.001032110434816891 0.003131064653398 -0.0003077697700857779 0.0004832172445145461 -0.0008206521536267962 0.001762855675549123 -0.001015750605237919 
-0.001706345663448475 -0.001072671136321843 -0.002948601579736214 0.007408846959699532 -0.00276994785150611 -0.0003871859009068725 0.001141462988407822 0.002897178941837048 0.0004643362080784391 -0.002203519969379311 
-8.95781736658816e-05 0.0006585518320438212 0.0005787178162911336 -0.004312036059469795 -0.001279342188840582 0.001244528242332984 -6.347415598435413e-05 -0.0002523345694658049 8.200069247341941e-05 0.0008744346996147397 
0.0007071502461764428 0.0004564636596143782 0.0001844559411958279 0.004069403713586227 0.0008210367336563085 -0.001230118445343093 0.0001176195618519256 -0.00122063560816559 0.0001356767956924029 1.944896303953631e-05 
-1.860802853072174e-05 -0.0004822343468883482 -0.0001392835759106787 0.004467482828133612 -0.0003929234802765937 3.198328765673988e-05 -2.123250286285374e-05 0.001853378746051636 -0.0009374723444474035 9.933706815264087e-05 
2.599361290079866e-05 -0.000221400807233419 -0.0005075313926553639 -0.001481133233635189 -0.0004552860358423443 -0.0007285607304144549 -7.381046295640139e-05 0.0005561666971564176 0.0004687479426223048 0.0006655242343229619 
0.0002898349375813334 4.521810876826162e-05 1.070279065062895e-05 0.0001648478500755809 -0.0005338358972257975 -0.0001447532993227382 3.107516143548339e-05 -0.0005663455217139395 0.0008407304140951987 0.0005924797268657632 
0.0002595616853122011 0.0007079049480523875 -0.0007465370143468123 -0.0008487527388519514 7.7347516802838e-05 0.0003304876990452516 -0.0002685722004704458 -0.0003718015560114941 -0.0002477269789052445 0.00011423573831286 
0.0004314419820225917 -0.0006509047018338711 -0.0001588622704083146 -0.0006958296138268366 0.0001993186261944595 4.232336502087796e-05 -0.0006868169933347266 -0.0005036826687770568 -0.0001269588844317542 -8.098630530087102e-06 
0.0002881511097347448 -0.0005561275165675665 -0.0006952029406891565 -0.0001248888256662697 -0.000348945400728869 -0.0006434804673386245 2.921985057821918e-05 0.0002725655188388141 0.001075591070385501 -0.0003468756432288788 
-0.0001890962843245257 0.0007450902001243183 5.092814590262124e-05 0.0003952286622134242 7.412984310347452e-06 -0.0003680645951493829 -0.0004869889671766793 -0.0006856253514178493 -0.0004288372120515975 -0.0001888858338262146 
-0.0001223988544608994 -0.0001214660396401245 -0.001030356850188465 0.0010989031626172 8.801968820911703e-05 -3.256520683530336e-05 -0.0001989003333511662 -9.468785161530079e-05 0.001034311287212544 9.301923471430662e-05 
-0.001376650630263538 -0.0007804514521424558 -0.0006435835335108775 0.0004649486657103879 6.022375485301088e-05 -2.028844647143813e-05 1.599151600296251e-05 -0.001229014770681152 8.011757034833696e-05 -0.0006903960954822535 
-0.0008760057998573403 0.0006370522201067557 0.0006440024394819253 0.0003135057911541877 -0.0006044744652807018 -0.0001516372777725015 0.0003759002206297773 -0.0009384261413111161 0.0003689795664908726 -0.0006977763858949276 
-0.0002844875227438297 4.429580544525813e-05 -0.0003971129889730491 -0.0005297311010295596 0.0005624060643267597 -0.0002432558008841108 0.0004001836942839561 -0.001131999941135629 0.001062546545743318 -9.353228691153146e-05 
0.0002632677862899336 0.0004001573617903963 -0.0004372675818962087 0.0001531783701275241 -0.0003393473556901792 0.0001994555890973762 0.0002565906078327049 -0.0006434044186623014 -0.0001818120885752055 -0.0002100881904310999 
0.0001048615123843242 0.0003246343081292304 -0.00027104281085132 -0.001332792214911879 -0.0003949759848028581 7.868844889543148e-06 0.0003331184896451858 -0.001136177279417439 0.0002676799272238099 -0.0001218336010517962 
-0.000479717939822094 0.0002419294722922163 0.000190537477469123 -7.534654069754124e-05 0.0009027360882736968 -0.0004727804114593153 0.0006545611418097683 -2.880417708078219e-05 -0.0001230933351938663 -0.0002169353993662444 
0.0001549634699983712 0.0003185812232908347 0.000379007821448941 -0.0003101800224753008 -0.0003814153454453238 -0.0006178099028257955 0.0005014216124609979 0.0008206425952524821 0.0008937149589268369 0.0002921793398351867 
0.0006626815852813069 -0.001037049246895424 -0.0004992187636039961 -0.0006554382130055617 2.954116189188697e-05 0.0005935445866490249 0.001422365805265485 -0.001741738187635412 3.047310059623305e-05 0.0006429927706324971 
-0.0004642530300635337 0.0002087463083788178 0.0009662750103011282 -0.003897712177447818 -0.001202640809202647 0.0003766269981057108 -0.0008913181474796798 0.001177619711963424 0.0008067334262010688 0.0003099051006519997 
0.001498967952461337 -0.0009350994805911548 -0.002646221736732764 0.00672866214913038 -0.0008536889680283241 -0.003826737572425992 -0.009818915324587304 -0.001326511644537285 -0.0005449249515225439 1.738551494067994e-05 
0.001750505482962018 -0.001380216231998652 -0.002023361518780483 -0.02310522203092286 -0.0039444509497022 -0.003587586575566513 0.001946052927649153 -0.004593481619247559 -0.001507692127745084 -0.0004774466170425336 
0.001393889687274591 -0.009615647311464812 -0.0001263127101877094 0.001011735504253853 -0.007484568111132473 0.003469435992984402 -0.0007419114183779955 -0.005998986665557345 -0.01238500210116515 0.001411995225831294 
0.001818812097446858 0 -0.006161660919540055 6.776263578034403e-20 -0.0002836975379663948 -0.001387384093470407 0 -2.879912020664621e-19 0.01632117482632188 -0.007150949559568495 
2.032879073410321e-20 -4.889768578317899e-07 -0.0005099732508047694 1.694065894508601e-19 -1.591885073706261e-05 0 -7.175197411525186e-06 0 1.921464231242156e-05 6.776263578034403e-21 
-3.693094307550949e-07 -0.0001785129753489519 -0.0003770350376347845 0.002668854502697925 -0.000501545240041974 -0.002794059219366261 6.251733509745293e-05 4.235164736271502e-22 -0.002078790733802496 -0.001059571270111484 
-4.388784927154139e-06 0.01016026653300292 -0.003410347097110212 -0.0004973812027517943 -0.01913994759781005 -0.0006179026002270099 -0.002422121416015242 -0.005349714418329436 0.003895254598035159 -1.350896141883239e-06 
-0.008669682753895451 -0.01072830107439351 -0.003757169851685779 -0.009958017840636957 -0.0007161572713066975 0.002106662321269869 -0.0001906767469882121 -0.004098351006747126 -0.002311788740706412 -0.001193792160360275 
0.001496248565507638 0.002174906405263629 0.003692505530836586 -0.007292744867127953 0.001354870982475634 -0.0008135145807092474 -0.001183771679094132 0.0002596996407516475 0.000636038830892543 0.003350720424801732 
-0.001226318521639456 0.0005238814391958206 -0.001807882630584664 -0.004040709606663831 0.0001015917892951531 0.0008099418688110471 0.0001590474087048609 -0.0008731849510669454 0.0001657650815963174 -0.001471331245190693 
-8.510712628171573e-05 0.0001811268394173036 -0.001773021207949956 -0.007308586498820266 0.0001810155045240563 0.0008331681231612902 -0.0003621906590432259 -0.000409494355164852 0.0007192367602510883 0.0005667832308884522 
0.0006369316955233433 0.000343163555329821 0.0005370970997846603 -0.002321759436865805 -0.0003402913533725688 -0.0003030806113609316 0.0001155800491348856 -0.001250154336292166 0.000278320454010501 0.0002436457700786044 
0.0003507926311922419 -0.0005831709924380215 -6.140481246645576e-05 0.001672469281181328 0.0005995561129008204 0.0005002141985949447 0.0001725084306853738 0.000166950199369372 -6.32473041915811e-06 0.0002549613887933293 
0.0002698725067498146 0.0003214814350727628 0.0001184995984340636 -0.0002374653113124993 -0.0002253206808607094 6.534172283189355e-05 -0.0006227064868534573 -0.00019124974861586 0.0004021111600973736 0.0004481056046006428 
0.0002623045325093329 0.0002013173849116703 -8.384397286924417e-05 0.0003499019955398502 -0.0002053894247906179 -0.0003099586042978472 -0.0005512749130355871 6.464618207339411e-05 -2.336483024323954e-05 0.0001313994983395529 
0.0007956850830739844 0.0007738552796796928 -0.0001146156671425622 0.001259655432581644 -6.843387942433568e-05 0.0002648244169628813 -0.0009540324831783861 0.0001697465324517205 -0.00031349111223432 -0.0003890778647492746 
0.000293842423923642 0.0002258579913958247 0.0001907149672971828 0.0001733039596616261 -0.0006609680207561983 0.0006465218699416104 -0.000887347339383934 -0.0005004546824979869 -0.0007586380297710644 0.0004992569257080822 
0.0001884287616769712 -0.0002273680975645066 -1.555769401754132e-05 0.0009780571749540684 -0.0004507683145612635 0.0001396237772899087 0.0003162134763219847 -2.438785305777527e-05 0.001127575638718648 -0.0001036662305035122 
-0.0006391429478126438 0.000477041829808049 -0.0008388357429791579 0.001476058687865359 0.0005088727382030486 -0.0003656937818570728 0.0002884849872469235 -0.0003148412517660091 -0.0001658495199263992 -0.0009111160844939498 
0.0008660558205448278 0.0001879873472792471 0.0001052732790218287 0.001096810884083079 -0.0010064062760474 -2.58150113552302e-07 0.0002045762148158165 0.0002038777269715564 0.0005639157939546894 -0.0006604636467052159 
-0.0001192794240855219 9.668817107653382e-05 -0.000628910834749778 0.0004026046065419919 -0.0004573670195518027 -0.0003630646399505125 0.0004580882573722364 -0.000928732285910097 0.000811347951673211 -0.0007907994181289124 
-0.0008584418362763348 0.0004831997448806527 0.0002861562730651739 0.0011545466296192 -0.0006479147302765625 4.204583077372895e-05 -1.815084579799813e-05 -0.0006456882988081347 -8.382098661352292e-05 -0.0005920434698980931 
-0.0009410656170011367 0.0008802725759977418 -8.189989310400489e-05 -0.0009791116602151555 3.772071440695254e-05 0.0001629927118591516 0.000609119689790017 8.766273566567722e-05 -0.0002027545806962031 6.500519434795608e-05 
-0.0004802947293077141 -0.0005763551062201094 -0.0004099915686100889 0.0009107251693404717 0.0003900222309724873 -0.0001306858291241617 0.000144957170918021 -0.001230051175000425 0.0002343646655259067 0.0005960947817348771 
0.0002140718265877438 -2.812540821582583e-05 -0.000581822298601061 -0.001659321495760504 -0.0002757877475140696 -0.0001599875852047588 0.0009835100138729136 -7.75731895837262e-05 0.0008927597285687069 -1.264041495260606e-05 
-0.0001695107189463921 -0.0003954247537213581 -0.0004767152102217903 0.0006538961187158088 -0.0001215307647953969 0.0006424213012553859 0.0004090901598513296 -0.001677910081426649 8.133672159132971e-05 0.0002304901852690296 
0.0004176706279519584 0.001027086176128672 0.000668765143639131 0.001472249477847988 -0.0001133245735718674 -0.0006123935190798761 0.0004744083576829244 -0.0004102308925373042 0.0009594714447089395 0.0004761742548890661 
-5.9684751207037e-05 0.001269481201614817 -0.002035651380851517 0.0004296583830063087 0.0007348724165311922 -0.0007795555381133516 0.003710632149451968 -0.0003563198550072883 -0.001126242424134281 0.0008284049249367472 
0.002253004152402597 -2.957433608170409e-05 0.001351854739256419 -0.01532955972021735 -0.001852817572123031 0.0002405744948218306 -0.01064616534108274 0.001379271381988667 -0.001209563922163273 -0.0005612627103682681 
0.001829335929261008 -0.001710134260560257 -0.001285622742421106 -0.0005944407620568266 0.001237684452269687 -0.00187006589858557 -0.001041403747489567 -0.002060200881803961 0.002003828295747755 -0.001262394045879303 
0.003173419346497452 -0.007457532420969127 -0.00705056641119176 0.001887556857129458 -0.003741104852870229 0.004093918219723477 -0.001619296184466725 -0.002378872007046319 -0.0007120176597181071 -0.003040472779997308 
-0.008213897088416326 0 -1.218978397279745e-06 0.005002170349534788 -0.0006470853955862735 -0.001371830187735164 2.541098841762901e-21 -0.007342690834343042 0.007254994629071517 0.005543975074020021 
1.694065894508601e-21 -6.258903780246921e-05 -5.481020919864342e-05 1.01643953670516e-20 -1.710904518469352e-06 0 -1.108788166292638e-05 0 2.065125108344384e-06 2.541098841762901e-21 
-2.708269158867329e-07 0.01016275438231665 -0.009216914068339466 -2.286988957586611e-20 -0.009833675357054124 -0.004624400451609403 2.778797057479557e-05 -4.837539163554801e-06 -0.0001809325870744089 -0.002782237862449412 
-5.350919567784743e-07 -0.008547176659232741 -0.0005631870585354591 -0.001818816940497482 -0.0002059089304760986 -0.001568965173896739 -0.002928609289317993 -3.557538378468061e-20 0.004750858755132845 -0.0002672160685884897 
-0.006305482679855432 0.008089653296255795 0.003727492627664287 -0.001043376457606017 -0.0006534835250185377 -0.002912501465048393 0.003794765383357546 -0.003435377483472237 0.0004465406149941807 -0.004001828391257954 
0.0003496908521994026 -0.00255333623902293 -0.003017279539212713 0.00428964734555014 -0.0009091640986056492 5.030390466005074e-05 0.001053085089709372 -0.0003036042028775778 -5.868129798407889e-05 -0.001754086964775375 
9.179306162610889e-05 -0.001083832034206492 0.0006940879622248899 0.004046371662406602 -0.0002454974465318481 -0.000652621212346849 8.524202436083641e-05 0.003357449751445347 0.0006387313636787972 0.0004258823960581529 
0.001078418269777025 0.0004314039305752701 0.0008956775656541307 -0.001009271151706112 0.0003878064976838663 0.0005038698754472981 0.0001770471856863749 -6.450160890795779e-05 -0.0006839798556916256 9.025811776090175e-05 
-7.761461125134853e-05 -0.0004514675168638221 -0.001016392883181172 -0.002951951755249928 -3.096831534489109e-05 0.0009027520254751982 -0.0005293935281103258 0.0003776370954886185 6.495640112585393e-05 0.0005158357865275269 
-0.0001634713102597495 0.0005048442293490405 -0.0008204815727193255 -0.001585344346847547 0.0009276360712018116 -0.0002867044838308244 -0.00105243387571767 -0.0006181522012373947 -0.001570389149856533 0.0004934037768906889 
0.0003020316167149741 -0.0009894950875038503 0.0005783568476244863 -0.002131080594600243 0.0001733541255236733 -0.001059696781082198 -0.0002174639953127348 -0.0001112272072088187 -0.0004911095561413588 0.0007885229345846695 
0.0003009316403802573 -0.0002066147549759896 -1.515456959118079e-05 -0.0004808373512117749 0.0004886092017001534 -0.0003598036708201162 -0.0006127287177649268 -0.000235947633342612 0.0006817053052127019 -3.191483244614161e-05 
0.0005959250662715317 0.0003075307778727595 -0.0005855635898735729 -0.0005502701604045751 9.444638708535694e-05 -0.0009767767236577016 -0.0001031429734506809 -0.001208162418184096 0.0005641043848534338 0.0005875166158404274 
9.244774357776859e-05 -0.001415479022380171 0.0004687968520649493 -0.0006182508327269209 -8.834565736131521e-05 -0.001000820930569344 2.864307395720638e-06 0.0004385228041342482 -0.0007785603656584936 0.0005789167615093207 
5.972309137101993e-05 0.00061223967180503 -0.001183882278958191 0.0002962936806572297 1.398521705506513e-05 -0.001253921162707993 -1.231377141126791e-05 -5.646855705386003e-05 0.0004489882248112322 0.0003881272809194471 
-0.0003627262516031124 -0.001457127827947615 -0.0010562015156786 0.0007909956725959175 -0.001433355324504261 -0.0008286059511740277 -0.0002558007231613851 -0.0003151446165541797 0.0004409490655233728 0.0002640479076154912 
-0.0002551399573241742 -0.0002351443223375298 8.192658353280734e-05 0.001914443484547542 -0.0002504827014365623 -0.0002833368061532389 0.0005491470195640236 -0.001109857356432116 0.0001802340299898987 -0.0008311220099133861 
-0.000302458579110548 -0.0008983404108000692 0.0004259602044985423 0.0009085584659013793 -0.0006422590243767226 -0.0001743102880560101 -0.0003857303596686798 0.0002247856007251087 -0.0004602540304792552 -0.0002515717215068197 
-0.0005200837832122977 0.0003241268130274871 -0.000628523521524656 0.0001958725047715894 0.0002647421883889633 -0.0009773183571062569 0.0001130118885976849 -0.0007887006803926269 0.0006174505572683011 4.866999357778289e-05 
-0.0003595448863478588 -0.0008089877497291129 -0.0005630450423153817 -0.0006835115082502167 0.0003805478875303204 -0.00029225943203498 2.548913983264368e-05 -0.0003870107370891071 0.0005015580170178079 0.0004292090380805964 
-0.0004225976566272722 0.0007783242724823227 0.0001217217468293111 -0.0006137050766700619 0.0003753089779055171 0.0004388029311991452 -7.574840556063108e-05 0.0001405261017319014 -0.0002643503901797463 -0.0002139866922227581 
-0.001771097098159427 0.000343623199321869 -0.0007878258759647975 -0.0004974901308820005 0.0008463037901696242 -0.0004933920233954233 0.0004561544031903936 -0.0006371075071286665 0.0004262449037662992 -9.050768335510133e-05 
-0.001092217387239013 -0.0001124456250188765 -0.0005746201868394538 0.002234898461203502 0.0004412481185247017 -0.0004720245477260842 0.0001868252558659624 5.561444056990383e-05 -0.0003536649478556973 -0.0002587941734074469 
-0.002570229655057104 -0.0002372804592100468 -0.0005582089638282324 -0.007363515106529319 0.0003081695729758939 -0.0001486552725110656 0.0003091579934140116 -0.0008128206810863839 0.0001033415028891465 0.00053479845128661 
-0.0008148304247723255 0.000238700205838132 -0.0001648563038863413 0.006815313721174665 -0.001816907933034922 0.0009984161681831408 0.0004634451634205768 0.000908897705167036 2.041019668842704e-05 -0.0001798050358996107 
0.005403411807086195 -0.0003485045539051856 -0.005583322426123643 -0.01401929368526841 -0.000846976606008827 -0.001913570234509559 -0.01341311062563582 -0.001654317997389568 0.001054253419537791 0.002764162347930993 
0.002393605864651573 -0.003856683505350639 -0.002641287714659353 0.001303484643954195 -0.001222375573660133 0.0008820012581455869 0.001041211602967269 -0.003379860444844986 -0.00913599742852508 -0.00262247539581233 
-0.002832154723905716 -0.002906540119267936 -0.0044500363887254 0.00309404353446153 -0.005139689196541007 -0.005131010805876403 -0.001309184706322026 -0.004048696418575268 -0.007223443289911203 0.003004037241866309 
-0.0006554376196135213 0 -0.0002449760596347407 0.002715416114046112 -1.912567671683559e-05 -0.00971274668284235 2.541098841762901e-21 0.01628235772737787 0.003115855382290194 -0.003477403754828888 
0 0 0 0 -6.776263578034403e-21 0 -1.121083093677229e-05 0 0 0 
-6.493599844157759e-05 -4.556708656538399e-06 -0.0005101038653743399 -8.470329472543003e-21 -0.001722098817796299 3.811648262644352e-21 2.24918942286627e-06 -0.0007397877139650684 0.006417771857123752 -3.049318610115481e-20 
-0.00270148732353579 -9.147955830346444e-20 -0.001383097935880732 -0.02025639621311159 -0.001247857339599001 -9.205564873779489e-07 -0.002952663283750196 -0.006674643772024291 -0.0008428428337471432 -0.01361056105618782 
0.002424274803035144 -0.007374290621742199 -0.002008632301996251 0.003325793228797876 -0.0003204663802466563 -0.0009765958191083641 -0.001850787604231325 -0.004901001894965688 0.0001132472285835675 0.003834556978718461 
-0.0009325069983444108 -0.00401140289328102 -0.0001836319041010815 0.00423064219676281 0.0005972305105750245 0.0001720661959993621 -0.0006177475926557374 -0.0003205305139021724 0.000228835519870973 6.398299927807736e-05 
4.794793711292551e-05 0.0004505629753179712 6.664487020291344e-05 -0.005173151798503319 0.000293630059260574 0.001239834743980608 -0.0006437850566957591 -0.002546305779566353 0.0002746366193721961 0.0001231340975914492 
0.001060350881869478 -0.0003423751423333004 -0.0006681444104546995 0.001417937573074681 0.0008257128991645338 -0.00269631075478685 -0.001160122152956783 -0.0004894974348405695 -0.001105977614451715 0.0008860043437207964 
0.0004576354386001868 -0.0008223694391079161 0.000721448760579064 0.002864286631419929 -2.058705317866394e-06 -0.001398347081162307 -0.001147971387697014 -0.0005195887486415529 0.0008677923196285318 6.462990299538507e-06 
-0.0001188087018161309 -6.874006374849564e-06 0.0001881689581857073 -0.001051104059180068 -0.0005649392047317175 -0.0004817181990943777 -0.0002581084815987786 0.0007017573357261671 0.0008021352884770794 -0.0007339527528216201 
8.45399292990021e-05 0.0006891685003401328 -0.0004855337355186453 0.001468820829785594 0.0004620773367252884 -0.000547123658621157 -0.0002572414213367415 5.470334039440564e-05 -0.0003860884662230084 -0.0004323238234011196 
0.0003714744266383312 -0.0005618428896076899 0.0008715270554497029 -0.001154743432352265 -0.000107052204760001 -0.0009988247610610392 0.0001769346136521406 -0.000384504643795591 -0.00112669739534969 0.0001373826764776001 
0.0004749085139530672 0.0003395208516172906 0.0001566575997277429 -0.0007056486275812067 0.0003288544967479059 -0.001265701222534814 -0.0002667225365048702 0.001458340357466971 -0.0005973689151640523 -0.0003323091255578906 
0.0003191990202133176 0.000146433023908709 0.001218691046478378 0.0003959685769990332 7.120301965385708e-05 -0.001209000441699872 0.0006269700847984259 -0.0001874585260107812 -0.0006455566528860315 0.0002836308440451751 
0.0007427863294071787 8.163995163084858e-05 -0.000179925587816693 0.0002608621974352235 0.0005664615087207254 -0.0004074165124715779 0.0004656660012576129 0.000146547767249715 -0.001849122552620887 0.0006945405011080386 
-0.0003346313100651103 -0.0006581674217018784 -0.0008200393401756415 0.001826092865694181 0.0004121053424492021 -0.001515480565517437 0.0003311382329425988 -0.0002057232573416184 -0.0008453319347508542 -0.0002356871872739822 
0.0002158648745526137 -0.001407682583844874 -0.0001208879249606444 0.001112042659413444 0.000778303230809712 -0.001041449111285303 -6.381055059379149e-05 -0.0004247488136120297 0.0004581950058632335 -0.0001034098393299302 
-0.0005868980161916461 -0.0007461879546484377 0.0003541665569077067 -0.0003095401569329386 -0.0001740639988894145 -6.468077312923763e-05 0.0009234393701222155 -0.0005252218600982683 0.0006116726123851279 4.3944336919193e-05 
-0.0001792695568266401 -0.0002575010605610144 3.508256333026708e-05 0.0005577387635938571 0.0003333249733699826 -0.0004451862051987202 -0.0003064721099813776 9.011214567434862e-05 0.0003349649118168917 0.0003475158443903902 
-0.0003593536438302662 9.207196227525506e-05 0.0003108451732730411 2.551438889596132e-05 0.0005072354682115893 -0.0001436627649129733 -1.700582277403069e-05 0.0002770295092177674 0.000416306383963226 -0.0001913349551722077 
-0.0005017538647896747 0.0001922531406908008 0.0002293970070293505 -0.0007105013193768402 0.0005298336688749362 0.0007124460592315691 0.0003652164952708843 -0.0005425787325998949 -3.091047439344342e-05 0.0003471894338663638 
-0.000844972625938834 0.0002060307000362347 -0.000150323789135678 0.000706224706196945 0.0002122010836387879 0.0003802359680610957 0.0004854610248293596 -0.0001554798697194751 -0.0004469613819801461 0.001080590231902891 
-0.001948136680648221 0.0002848976415534167 0.0007482734113968157 -0.001492498104472744 0.0001195428965195346 0.0001858548723397548 -0.000996251286664823 0.0007826135846852628 -0.000966062880763964 0.001010373018142957 
-0.002408915564502474 -3.061350019491324e-05 0.0001916348096336595 -0.001317279924084895 0.0009776888381001678 -3.675751031635833e-05 -0.001854791524572854 0.0005627303239805671 0.0002220810973247089 0.001048374117129464 
-0.001738197142782047 -0.0007490208753683138 -0.001772992276864065 0.006204506114359788 0.00268527720564633 -0.003051837810986137 -0.007816377606777222 -0.0001813194120369271 -0.001593997737239026 0.0006997726177102054 
-0.01360035040839474 0.002120549608879315 0.002435971258608058 -0.004954225523478096 -0.003757671019768767 0.0002788929419398036 -0.006921179654740352 0.000974332198538776 -0.004848662828174251 0.001939441231486544 
0.01138378637609723 0.0004863538245133062 -0.001660897456125055 0.004826989596538203 -0.01698835539205786 0.003696404656275559 0.007538900683072938 0.002043511910842605 0.0007715245492804067 -0.001242880155223978 
0.01413166392681266 -0.02340400736589248 -0.005954097587413575 -0.00268026858269102 -0.001975519289502141 0.00393914755047131 -0.0002141035491235495 -0.009687949332539506 0.002284889462780806 0.0003508578047864104 
-0.006525549335140934 4.235164736271502e-21 -0.002213417032924454 0.001930790361888176 -7.580944877925988e-20 -0.01417163756146692 -1.694065894508601e-21 -0.001367004048080784 0.04152326896614465 -0.006205317673940144 
0 0 -2.787914547217085e-06 0 -0.002701904609396478 0 0 0 -4.777327998119342e-06 -5.161668333202404e-05 
-9.028648258489976e-05 2.491781792501155e-05 0.006844653723406995 -1.084202172485504e-19 -0.006619115559814859 -8.470329472543003e-22 1.084202172485504e-19 -0.002912914123737456 -0.002120883784311539 9.147955830346444e-20 
-0.002905495968438303 -0.0002704711767166413 -0.002956153654536881 -0.003305462477019572 -0.004413417548625027 -9.741944544041306e-06 -0.0009150964027117578 -0.002224881257341424 0.006024481413542422 -0.004677979704595347 
-0.0006393575008469974 0.005436207893534083 -0.0009968509944956541 -0.003548280509288575 -0.001656944709009238 -0.004714626424600842 -0.001544858609413984 -0.00405484954382139 0.003804776196768522 -0.0002979371599969667 
0.001116788138643907 0.003243887210394261 -0.002472861238252305 0.00578235806515042 -0.0005785267957062708 -0.002026695354115308 -0.002230096892957053 -0.002800306810602936 0.0003523643586452176 1.254363312305017e-05 
0.0003396628259307811 -0.002176186962619408 -9.761512028071748e-05 -0.01515103010542619 0.001455045913783976 -0.00139784053986363 0.0004882141960910251 0.002280358923756767 -4.782830469101599e-05 -8.085216609667449e-05 
-0.0005568165264346653 0.002166864830072523 0.0007718180255091512 0.003639762410489327 0.0001808845096025879 -0.0003111388507648978 0.0009051919933902245 0.001756852288423912 0.001564322125841066 -0.0004069107695376434 
0.0007854783607118156 0.0005196985993568259 0.000368655367022016 0.0002905626633435473 0.0007483197365390927 -0.001108035951125774 -0.0001432849093275156 -0.0005301009434509643 -0.00044843587729164 9.61298908876672e-05 
-3.948951146397327e-05 0.0003756979822687559 0.0006983645557407269 -0.001073644181004532 0.0006164197715669678 -0.0004131879745353357 -4.549229198031877e-05 6.642539974907194e-06 -0.001138149264551078 0.0002527289827620543 
0.0003807339358140313 0.0001246911772073701 0.0009018146133335303 0.0007455639451269191 0.0004202919789412317 -0.0008107321922168801 -8.963104298272118e-05 0.0001609520428646347 -8.18590322505433e-05 0.0003355596756854346 
6.100693447238446e-06 0.001153838002387439 0.00101176349917898 -0.001653424718995862 -0.0005139999042124338 -0.001273909007937334 -0.0004012589486732646 5.880239196283483e-05 0.0004014975865891612 -0.001065851177451594 
0.0005241858424623288 -0.0004490966724352463 0.001090985434742112 -0.0007847249753998211 0.000239106576022415 -0.0004638267605436815 -0.000319144693607977 -0.0008409671803563743 0.0002573826220951922 -0.0007484550097900229 
0.0006511542735018598 0.000340866089816636 0.0007503168917823487 -0.0001626002410655237 0.000659900697133829 2.35857563644309e-05 3.375192736541139e-06 0.0002498178418475335 -0.001143713437123395 0.0008882703207744566 
0.0003515324668001081 -0.002060060915113754 -0.0005038400278960783 -0.0001559095199285866 0.0001639157210786469 0.000271957846471742 0.0001803559435556574 2.475468460383605e-05 -0.0007423496937848788 0.0002249139698581375 
0.0002529792570601722 0.0003088557803362269 0.0002209592907606086 0.000507066177016407 0.0005139544390768805 -0.0008270608332350357 -0.0006161968102808561 -0.0006518047238699695 -0.001382573329747969 -0.000915826663150745 
0.000210131147282606 -0.001791604116015185 0.000602547900301941 -4.819410236031404e-05 0.0003712855887065626 -8.545719522251463e-05 -0.0004416551528069414 0.0007138956343930319 -0.0002123344123553658 0.001196946028562619 
-0.0004530804408452177 -0.0007654427852554245 0.0002470740525030891 0.0004912037650214036 0.000442236857515315 6.903744782013415e-05 0.0008419123077671412 -0.0004294435867023371 -0.0003422624844912689 -9.337980228485594e-05 
-0.0004548504637982965 -0.0003250988959580616 0.0002324584623354719 0.0008506584794448738 -8.837555085299703e-05 0.0003569795256506499 0.0001161804383391522 -0.0002494623524977137 -0.0006897419101290106 -0.0003873887533704672 
-0.0005024305384691236 -5.878658329853577e-05 3.44819387566308e-05 -0.0009135387773224619 -7.808387915047589e-05 -0.0001089577543787068 0.0001248100624389086 -3.172799563022947e-05 -0.0007280888904224367 3.116723785534203e-05 
-4.961091051113642e-05 -0.0004839484382531193 -0.0002165822173064861 -0.002113711722265451 0.0006269089440677061 -0.0004930493981799773 -0.0005464231639491801 0.0004317147425089912 -0.0008636254100745519 -0.0001558226615807325 
-0.0003377729928517556 -0.001065551406673136 0.0002657707722918921 0.0009619264671297817 0.0002406314638726612 -0.0002364492011204147 -0.001016579468857301 -4.958373551537044e-05 0.0002560340734522126 0.0001074138913900389 
-0.0003068320937123625 -0.0005873827413972527 0.001219948467400057 -0.0003063074922356783 0.0002484712071795901 -0.0006523076385142824 -0.001718464982106262 0.001057127984421153 0.0002782131760765571 -0.000342652891326909 
-0.0008622664611075357 0.001422150966612056 -0.0007958644012151624 -0.008599329442386554 -0.0001190073713981373 -4.372421783271262e-05 -0.002694331516861003 -0.0001192484556609047 -0.0001173877153121413 0.0005820291004019183 
-0.004706460279558291 0.0007838896034162475 -5.300727237838894e-05 -0.009684617927511886 -0.001320499971670913 -0.000160671611224068 0.002627301631312593 0.002051202613422666 -0.001512931271214999 0.0004813544669720642 
-0.002181014014379579 -0.00116210392063493 -0.003406741758016452 -0.008621012667712384 0.0007841018750802133 0.002154671596964015 0.0007428120142670023 -0.0004658130012555585 0.003440147122294811 -0.000659217353631419 
-0.007212392358147441 0.001849505621805341 0.0007960331974274479 0.0003295053331497603 -0.007985858756255761 -0.0006642867427529278 -0.00405985656115626 -0.002866484942068563 -0.001053911558121785 -0.001259867250812145 
0.009571078702751666 -0.01482602636714339 0.0004662872712952693 -0.003684846718039076 0.001646180156729856 0.008101445560049426 -8.165875204529986e-05 -0.005377355818294152 0.00377169858667579 0.0006326234648533231 
-4.867876742383326e-05 -8.019876731565235e-07 -0.005453094707948581 -8.470329472543003e-22 1.355252715606881e-20 0.005221981537776394 -8.681753708791027e-05 -0.002982432987290205 -0.005915000073065054 -0.001307076395832875 
0.008048712794497218 0 -3.388131789017201e-21 0 -0.009561497984531375 0 -0.00427878456565165 -3.896351557369782e-20 6.776263578034403e-21 -0.001545936579087382 
-1.85649401720435e-05 -8.470329472543003e-22 0.006115216581805354 6.776263578034403e-21 -0.0046249968343829 -0.006436818161011643 0.002327971239064838 0 -5.749796981163274e-06 -1.157963491097507e-05 
-9.907530728988402e-05 6.776263578034403e-21 -0.0096564212858726 -1.795709848179117e-19 0.001666622559323339 -0.0001172912583429965 -0.00287144957355174 0 0.007381251838315998 5.522654816098038e-19 
0.001819839771931214 -0.008577466956849225 -0.0003588909050932461 -0.006010549611434178 0.001593101440421301 0.001884908407212643 0.005867525628803177 -0.0001379068365103877 -0.004985377488185137 -0.006010020276038386 
-0.001191537865646359 -0.001276001210708767 0.001716543779523766 0.01017489772115328 -0.0001669772525738354 -0.0005963955301043108 -0.000186905418057673 -0.001449862070274776 0.0009271362406758019 -0.002684473295015726 
0.0001853239594200979 0.0007042409756961184 0.0006670181906470978 0.00922896733643859 -0.0007842992526413615 -0.003996107204285369 -0.0007328348958304024 -0.0007390037823956109 0.0005435888181357052 0.001058652766368318 
-0.0008935327618788849 -0.0003537239539006106 0.0002353452663317311 0.004071874443124747 0.0008188627027171464 -0.001651165353016984 -0.001215156984353376 0.0002756523541904929 -0.001152140176448474 -0.0006827205756277417 
-0.0002491561644823965 0.001155516363181158 0.001381576708871964 -0.006208145883308245 -0.0003560311826940811 0.000430850096175166 0.000188331231432046 0.0002330239258859079 0.0005014890901821162 -0.0007114687952775228 
6.914783495383839e-05 -0.0002509553345810119 -0.0001564441749731531 0.001875199606412399 6.866397607506323e-05 -0.000931064458426812 -4.207472019790673e-05 0.000115119555266451 0.0009538547241847153 -0.001385297981761802 
-8.835742559766993e-05 0.0002739060523914034 0.0004986080404063522 -0.00192411923837155 0.0003968856965789293 -0.0003845719930155844 -0.0002078262151006714 0.0001321888592807405 0.0002703144585392436 -0.000543160996519818 
0.0003537513678653833 -0.0008404393819855696 0.0006701178343636734 -0.00072127430520304 -0.0004878463195886903 -9.531589217468147e-05 -0.0002662757922448683 0.0002592006400987168 -0.0003772143809624168 -0.0004083856299518671 
-0.0001101391258760414 0.0002050320562550235 0.0007109702194842845 -0.001216540918602288 -0.0003249992266943417 -0.0002336903294201356 -0.0004190312853121837 0.0007030762265110968 -0.001174382451342413 0.0007511209142255418 
0.0003141242591839074 0.0006435237275937099 0.0003193252011144998 -0.0003207219356950272 0.0001725561761700512 0.000557762359093071 0.001269042051275193 0.0004429351693126323 -0.001302143507867599 -9.093732331805896e-05 
-0.0003928195449601253 2.759535539074749e-05 -0.0001564434487102636 -0.0009619015722140007 -9.160110130274514e-05 -0.000460777501008231 -0.0004159765334036291 6.946149382313121e-05 -0.000547731942134113 -0.0003153832533621755 
-0.0004513413787971987 -0.00252638078071712 0.0003313970913095236 0.000645753739479446 -0.0005233061542487025 -0.0004215463576468102 -0.0004757848706253824 -0.0004390659090522936 -0.0004040894790998528 -0.0003247654226699326 
7.234418273728255e-05 0.0003031682101722197 2.70964936731075e-05 0.0006548060840502085 0.0001975715985452324 0.0001057551490014321 0.0003772713645748853 5.880472071859046e-05 -0.0003968603265740412 0.0001229711296681025 
-0.0005274835813869899 -0.001754951250917407 0.0005269281522308986 -0.0005753119927053807 -7.892043540921378e-05 0.0001249533736489637 0.0003919011358576196 0.0004480641728427064 0.0004528332491598386 0.0004437100723025286 
-0.000689005774233023 0.0003235153346887452 0.0004023573296030536 0.0001130177971965723 9.164816362794809e-05 -0.000438522837145642 -0.000436702493522325 -0.001283635444996561 -0.0004514200104103152 -0.0001119252588762573 
-0.0002173591849868267 -0.0002233345113708282 0.0002331652738924309 -0.002160690495907012 -7.019734564011234e-05 -0.0001349913385058354 -0.0005061533092036974 5.564132060736176e-05 0.000449087532229006 -0.0004149867950347727 
-0.0007164114963576446 -0.0001217607350464069 0.0009226307926254359 0.001002697321969503 -0.0001830503644167319 -0.0003127487547050892 -0.000863014534267274 0.0003699854495676774 0.001632937113238028 -0.0007402646236163749 
0.000226005146079721 0.0008347447555116638 -0.0001044024569384172 0.00170184683358747 0.0001322499750120182 0.0005114703992640026 -0.0006769945145423889 -0.0002577874004358559 -0.0001541562360003321 -0.0005498268646374469 
-0.0005547804894724079 0.0008175310922779098 -0.0001891852935072769 -0.00152717916610726 -0.0001453205054132227 -0.0001364449810119529 0.0009244667495527093 -0.0002972438716908934 -0.0009112921639148785 -4.543728742439216e-05 
0.0009356898998929521 -0.001216250167058892 0.001011339841002907 0.007647319902734321 -4.159235810323304e-05 -0.0007559032583106563 4.77058419034687e-05 0.0007831022800448089 -0.0006302538436893698 -0.001730011032664073 
-0.0006298458162723241 0.0003482454324732353 -0.001965624882385885 -0.0009635665871496741 -0.001885791629344185 0.0009786374938096981 -0.0009088556066650073 -0.0006672143622914647 0.002066808344420247 -0.000906711726711073 
0.002661083747394884 -2.386147974552893e-05 0.001602227986642056 0.001582350344009481 -0.003489085152066053 -0.002357000903379871 0.0003145139364199077 0.001053492503651481 -0.002347360939572239 -0.002317475352131586 
-0.01560566120012045 0.0008521276704239402 0.00156112447962026 0.004133885774951914 0.00525637237386647 0.002020513770994865 -0.005098845513766698 0.002484289179576827 -0.0003021142380204184 0.002273707212644005 
-0.003298780671115247 -0.001007030189042092 -0.01552492773751901 0.005600270322451971 -0.005265353451947191 0.005554470460766551 -0.0002982705895709559 -0.006122819426528959 -0.01396359650169418 -0.004959324292910712 
-9.882398609955188e-08 -5.957622714877162e-07 -0.0006058994119942874 0 -1.376428539288238e-21 0.00123646079921696 -6.449302755101835e-05 -0.00147391829554467 -7.975614654479029e-05 -0.0009280256020663552 
0.001240457159910922 0 5.293955920339377e-22 0 -0.00313075597723595 0 -0.001401017955124874 -4.235164736271502e-21 3.654994354802641e-05 -0.0009534093598391162 
0 0 0.0003034221172047607 0 0 -2.709375125838915e-06 0.0002080149996631407 0 -2.851138998924033e-07 0 
-1.918000484185226e-06 5.421010862427522e-19 0.003850600559362955 -1.694065894508601e-21 -0.01027795550375264 -0.0009766869350170703 -0.0007032183213940557 0 -0.004335713705881407 -0.002319989609924889 
-0.003476891232122877 -0.0009196550637536606 0.0003865869185698489 0.005271406786995037 -0.001342470247228854 1.219148285854388e-05 -0.004455787028038714 -0.002314082181450345 0.005983815079443629 -0.01244230324406717 
0.002467854308767288 9.179272958332563e-05 0.002890535318274586 -0.001372455826204658 -0.0003078767883372276 0.0007981317246005506 -0.0008691121739926741 -0.005473877905039103 -0.002091287799546259 0.001382565549543617 
-0.0002551072734540226 0.0002445075436719847 -0.0006388025488126814 -0.01526280548009809 -8.28844533309652e-05 0.002946062634677228 0.0003759542816027305 -0.0006397154658083065 -0.0001182953243517318 -0.002816408766316914 
3.294143539011836e-05 -0.0004938911012958976 0.0007394280332761354 -0.003502366799877532 -0.0006954167278482527 -0.000118229038935703 -8.498709291992205e-05 -0.0006300306197547266 0.0003678858600514109 -0.001058821294577145 
-0.0005237924227003833 0.0006391029020691406 -4.531929619053535e-05 0.00271079380874532 -0.0002960212649097822 -0.001630262690276385 -0.0003968229233018939 0.0007778926980169453 -0.0007663055326875252 -0.0004271797236629916 
0.0005251885055663542 0.0007116786022880911 0.0001464049108490367 0.0003019598057416516 0.0002632615356805415 -0.0002357120759343798 -0.0005059329574390635 -0.0001371657156473504 -0.000469127146399633 -0.0006555483182319104 
6.338100136250337e-05 0.0005251136967092091 0.0004236760986745684 0.0001578373183134725 3.101020789819717e-05 0.0001642527194662439 0.0001456506626100861 0.0003378910733763379 -0.0002565404409987054 3.292567749597672e-05 
-0.0002924126142302655 0.0008183798237476264 0.0005037929702619831 -0.002027733659886986 0.0001711488978529079 0.000197404164605895 0.0001337760736236722 0.0002819823964333339 -0.0004532598153475217 -0.0001021157217629442 
-0.0004125355308034392 -0.001385495333532619 -6.186908997127489e-06 -0.0006558009372703935 0.0004445588996414706 -8.442577201908536e-05 0.0003468272608312076 0.0003246468859209752 -0.0008273881644685248 0.0004860507280156072 
0.0008975506389504418 0.0007366120585175442 0.0003530575264696628 0.0001779415096499375 -0.000147120356315889 7.222072285897168e-05 0.0004198562460037999 0.0002558804902663752 -0.0005762238285872527 1.561733434468769e-05 
-0.0001769070327554538 -0.001262637060670622 -0.0009091379042214641 0.0008351316532381473 -0.0001398088630920274 0.0003401437726537782 0.0005030149283066805 -0.0001462573685120671 -0.0005477140716453776 0.0006570169383043959 
-0.000182477857280434 -0.002013055366131999 -8.138373091629392e-05 0.0001518546003489492 -0.001279036183311358 -0.0007937624284825257 9.264731752565678e-05 8.265292205233702e-05 -0.0005913234659977067 -0.0003455494118396217 
-0.0008194623626436168 -0.0005525009155285678 0.000222012278361591 -0.0004963390783056699 -9.537519706776882e-05 0.0003142419839875611 0.0006758659190414646 0.0003854915771692944 0.0004944435093770491 0.0004805752172060124 
-5.173149138224552e-05 -0.0006903027611984858 0.0008728150564329751 0.001506118027708139 -6.902691007358333e-05 0.0004460104431751748 0.0001693749082974041 -0.0002078330715663256 -0.001296159832090798 0.0002399540608916851 
-0.0005468543134828861 -0.0006594539585553773 0.0004485497401185232 -0.0007681169768157955 0.0007712304074221518 -0.0003201909990630763 -0.0005159233186775362 0.0002628902234151013 0.001520104415726489 -0.0005378598693338934 
0.0002867932347145883 -0.0002198516510747298 -0.0001818133111893137 -6.68755180723482e-05 -0.0002329232232215183 -0.0003560319131234779 -0.0003943450573866593 -4.331786033190052e-05 0.0004470958386537254 -0.0002779879260684986 
-0.0005191887648487803 0.0001172678191486229 0.0006577642609709617 -0.002869052091506633 3.845389225903041e-05 0.0001640081976707204 1.13298279407422e-06 -0.0003136351039188235 -0.0009282007810620511 -0.0003660362908003193 
-9.221768034502366e-05 0.0001925516610160772 2.417673072697142e-05 -0.0007940843901140634 -0.0004911229980403809 -0.0001758030594442525 0.0009046798151722204 0.0008732322475331171 3.987748343733935e-05 -0.0005354746508000329 
-0.0001362337085518837 5.79890847556589e-05 -0.0006585965476437622 -0.005151617950650124 -0.0001785210177595295 -0.0004322721006224791 -0.0002039031403712403 0.000506548982717832 0.0004076016290033621 -0.001210589380930811 
-0.001386139260042243 0.0005461399862439257 0.001017092753649207 -0.002818171334310683 7.06396349488731e-05 -0.0001501561060930438 0.0002134122904897464 9.00062926033253e-06 0.001038760084429233 0.0004408907748946215 
0.0008627032784951486 7.519923980775784e-05 0.00230528201242934 -0.00278738854117605 0.0002066844964672267 -0.00209175711256139 0.00232628604963623 0.0004193530913194764 0.0009322481843517718 -0.002409645717143631 
0.002178729482144606 0.001189653927417371 -0.005274824106626845 -0.005938926656509953 -0.003887399915792541 0.002564058881654021 -0.0007665942422240327 -0.002062671434936366 -0.0009423477850079268 -0.0009461705824162255 
-0.0004962794200786621 -0.0005886160610272487 -0.00279386531688658 -0.002774173742308495 -0.001043645702495519 -0.0008066273018753437 -0.005177618665722578 -0.0003792520707802418 -0.0003969539245931201 -4.074180943067476e-05 
-0.003764050779416491 -0.002245012107420602 0.0103255324807742 0.002416264611445413 0.005682216705142292 0.002206247305149285 0.008991831436821829 -0.0008477196058612904 -0.001766862888098774 -0.008093880786421497 
-1.722869300589832e-05 -1.355252715606881e-20 -0.01209355688997366 0 -0.005643351217448244 0.005724592053740602 6.776263578034403e-21 9.105604182983729e-20 0 -6.184446227416247e-07 
-0.007971211849631505 3.176373552203626e-22 2.541098841762901e-21 0 3.388131789017201e-21 0 -4.235164736271502e-22 0 0.000208856820274437 -0.002555529923417801 
6.776263578034403e-21 0 0 1.146259562581386e-07 1.01643953670516e-20 -0.002525846905112049 0.004452760053363204 0 -0.0011781700515219 -7.711045598585544e-05 
-2.679416988526006e-06 1.609362599783171e-20 -0.01351956525649767 4.912540982490613e-08 -0.001365952945856134 -0.009289635901497581 0.005650734727677716 0 -0.005380876386464246 -0.007891076662218797 
0.001662213586224446 -0.003056829923292174 -0.003229967154847724 -0.002026457427168474 -0.001252764421162615 0.001198190822459913 0.003032621849925172 -0.004588275802323148 -0.00489955188627027 0.007405810183394827 
-0.001132442404076152 -0.0001574768432990313 -0.002298552018985528 -0.001612646658530925 0.001893824345277713 0.0002481370764497099 0.0002799341901937723 0.003520248735038299 0.001045930057657234 -0.0004270169865655428 
0.0006651693794338268 0.0004728148573552158 0.0001246954608365148 0.00226597199096218 6.546989628853533e-05 -0.001198633272698495 -3.048053638073272e-05 -0.0001634782956815858 -0.001281077242309772 5.727518846216282e-05 
-0.001067720230059631 4.300417931057603e-05 -3.354188550700347e-05 -0.001269783935061704 -0.0008282907105587322 0.001005227193191664 -0.0006165684355980879 0.001026503031515735 2.927977309307797e-05 0.0004826231404575843 
-0.001520097970175919 0.0007647732428244093 0.00061020385946438 -0.003196995678425106 -0.0009802084017743926 0.0008790374329911504 -0.0004056974745124425 0.0007043130084578944 0.0007266702789982803 -0.0006461171837453849 
-0.0004137602044612184 -6.620724936042227e-05 0.0005193163816818881 -0.002140334420727438 -5.718624314041926e-06 2.802178942293774e-05 -0.0005898530749036921 -0.000899901340686362 -0.0001382236525981422 -0.0007485837123680043 
-9.039575858624089e-05 0.0004297588930880632 0.0004006249546893225 0.002444638503950281 -0.000425957943311596 2.901913332824731e-05 0.0007122070053557695 0.0007688637533404765 0.0008277122051486379 5.533115539474142e-06 
0.0003596972383833577 0.0002566465850322822 -0.0001608014721197464 -0.0007414543616076479 0.0006502792944262787 0.000227271392678861 9.924996250382368e-05 -0.0003036013893664598 -0.0007310317443746101 -8.346301489370412e-05 
-0.0002451580198489376 0.001032336061680118 -2.071964169174456e-06 9.604644110932955e-05 0.0001347683711473502 -0.0002706165768470218 0.0002008896486086125 0.001035496576130252 -0.001128622316328602 -0.0005454260604871769 
0.0006145749427063957 -0.001065710347690716 0.0003927693334163266 -0.001636075176555493 7.156969478308572e-05 0.0006577458227374527 -9.005432317377927e-06 -0.0003952906955023693 2.298095707025848e-05 -0.0001399372781943651 
-9.969290731069629e-06 -0.001903497949795157 -0.0001789159667104778 -0.0004298574570495915 -0.0003370629271064178 -0.000171597206121348 0.0002843750221571873 0.00017548555148898 -0.0003777117910494037 -5.059229271872891e-05 
-0.0007836297939836461 -0.001631368707575648 0.0003502247846614356 0.000686340599158386 -3.23444641481695e-05 -0.0004553820924753688 -0.0001358808739436255 -0.000781657021324329 -0.001020831645540214 -0.0007551024146562194 
-0.000243851310992679 -2.744089334853067e-05 0.001236602384584115 -0.0007737617025150938 -0.0002878776343702054 0.0003585875737581958 -0.0002509137285582555 0.0005160521362057775 -0.0001147547680597325 -0.0002431272293663056 
-0.00128620983184531 -0.001283411329782254 8.594186188382873e-05 -3.02030957206915e-05 0.0002372194728944536 -0.0001571589026172837 -0.00077147752478499 -0.0003289816302218067 0.0001140620463307917 -4.152943843890872e-05 
-0.0001887640513425562 0.0002367251703537613 0.0002734544935372608 -0.0013543797713772 0.0005194011414316648 0.0004823753619386089 -0.0005909657427759212 -0.0004935514867131039 0.0004595643080174533 -0.0003585399781494048 
-0.0009633017706524496 -0.0003397890383449693 0.0002611301012661903 -0.001126442380132979 -0.0002681758519756441 -0.0005376191276980124 0.0003603204884715458 0.0001075136478272571 -1.162745179101266e-05 -0.0005988658878226688 
-0.0001311966137112992 2.151416164112601e-05 -0.0004448499951146968 -0.001387386731763448 -0.0003682550700521136 -0.0003224898922733906 -0.0002844955651879634 0.0003931314375990536 0.0007559923884274857 -0.0009382203921227515 
0.0002510390013576352 -0.0001767465261372118 0.001455969672359477 -0.002277738347049036 8.890875743488626e-06 -0.0005818439687975744 0.0005867008353582746 -0.0002598468172979279 0.0002107808307669498 -0.0008485981585404688 
-0.0003306671553963406 0.0007256689397298823 0.001059688749886751 0.004444342575266337 -0.001328921056722822 0.0008829827332827321 0.0004149423748051357 -0.0001021912731354519 -0.0008856121860969801 -0.0008275906489313023 
0.001615805932954371 -0.001721040613654691 -0.0009563961852641113 -0.0007350442818002041 0.000183827415231885 8.553819699310105e-05 -0.0003927343035279921 -0.0004797780476962957 1.133726768834761e-05 -0.001656430593123062 
-0.0001262966200697772 -9.342724868744116e-06 -0.001275079562660517 -0.01568874940721712 -0.0007387071400492921 0.0009831645771322943 -0.0005202886262281336 -0.0009048846812273864 -0.000340805918601188 0.001530173034598521 
-0.001558983031658064 -0.001038713837599974 0.001687355889491529 0.01089085583288241 -0.0001964422055129188 -0.001075407307313631 0.001054887664991586 0.001138396446119467 -0.0007308732979176962 -0.00125356360883877 
-3.261760979355894e-05 -0.002189710972680173 -0.002685098570658773 -0.008339654093802357 -0.00832168488489304 0.001306392570397808 -0.01061462737796851 -0.0006627623753653304 -0.005587685185214653 -0.001947801333911123 
-0.01026662350953667 -0.008014708472301355 -0.007702937511512483 -0.0009112464132895483 0.002467392234772425 0.005721777348794596 -2.48050105965359e-06 -0.007170014551975879 -0.007003596672886182 -0.002838876500917077 
1.270549420881451e-20 0.001909624447686306 -0.001760426302346858 3.218725199566341e-20 -0.001465480695493919 0.0005676116753586492 4.235164736271502e-22 -0.001770466574869515 -0.005228335760421012 -2.327937609523364e-06 
0 0 0 0 0 0 0 0 0 0 
1.005851624864482e-21 -8.470329472543003e-21 0 1.735764480480378e-06 -5.171228375109854e-05 -0.002544142066099923 0.002640321564526499 -8.470329472543003e-22 -6.403098106097274e-05 -0.001167672619214383 
-0.001063208504029228 -3.067045005947767e-05 0.01589251010925997 7.205060107654398e-07 0.0002284726130356574 0.006130486633680999 -0.003086352244596258 -0.0005817974387597558 -0.004494927502998764 -0.0004951306370883117 
-0.0007182997175480058 0.0006638156688230432 -0.001190957664802832 -0.001116945038596797 0.002007138476712788 -4.655335892516121e-06 -8.883112357578877e-05 0.0009607983297310373 0.001817932864674165 -0.00011582966164515 
-0.0005108399507730156 0.0001616880575512343 0.001375653160308448 0.002100797762977578 -0.001494092004759082 -1.154163172064414e-05 0.0007753193043415954 -0.003261272169572147 -0.0001647230236587218 -0.0003764001904424753 
-0.0002256792254511909 0.0004506054051499407 -0.0001983122317071924 -0.004160773198424187 -0.0005252362014530512 0.0003702538811967007 -0.0006555644825609298 0.001290253611553263 -0.000294411707614805 -0.0007207578241945943 
0.001537094894982419 0.0001296972676342682 -0.0001441976369139359 0.00535371105196392 -0.0003645018150771093 0.001024902060295063 -0.0003158146847413775 -0.0008691870665540987 0.0007260308231515032 -0.001180979013745251 
-0.0001538809969235123 0.0005589719156020178 0.0005719513516923968 0.002617386629119588 0.00101193304056596 -0.0003462961438176535 0.0007538600714978128 -0.0007745950021426271 -0.0006312553364201058 0.0003584125692740129 
-0.0002642206456426024 -9.098483957864506e-05 -1.441956927752708e-05 0.0003525453224867466 -0.000103522343215909 0.0002193162061318835 1.798681543329175e-05 0.0009916074794542112 -0.0008137896973233825 0.0007683177445080253 
-0.0009088239383066728 0.0002445517821658957 0.0003710042317326668 -0.001075534706266029 0.0001458890511981381 1.817473206287009e-05 -0.001058656314767938 -0.0003374941469950411 0.0001439568732363257 0.0004395373882629342 
-0.0006141423296166269 0.0008109844408471013 8.873606007428055e-05 0.0002202222365507955 -2.282299109701054e-06 0.0001534281133426251 -0.001182303412560105 0.000627552534843576 -0.002004689610054731 -3.818792772788571e-05 
-0.0007954908512739245 -0.0008847184976952891 -3.995642036495067e-05 -0.000599746116794811 0.0007771007181882142 2.076818339215419e-05 -0.001252623344272215 0.000927013885104284 1.221591781797459e-05 0.0004851129949901185 
-0.0009027943216705067 0.0002588926121479496 -0.0005403731454894834 0.0006261938845547032 0.0002201143799303229 0.0006174111995564172 1.823557405027688e-05 0.0003721303494878254 -0.0001260308585934969 0.0009037791117894326 
-0.00050273165044702 -0.0007194231298060593 0.0003770766891954024 0.001120420170815143 -0.0001554347056362386 0.0001467638033510439 -0.0002361180865699784 0.0004636695966759471 -0.0005586698636113884 -7.376951495728136e-05 
-0.0006224485493911112 -0.0005910793917739161 0.0005451225141748276 0.0011521445127779 -0.0002663933891735343 -3.420363401445081e-05 -0.0007124629887205262 2.772931807700872e-05 -0.0001164433640190853 0.0005586675607383822 
-0.0001612672370992847 -0.0006014609195368045 0.0004178249340745039 0.0005190900282275842 -0.0001017122917888462 0.0007618074541926202 -0.0006653469298963012 -0.0007006472476026883 -0.0001976455020734888 -0.0003610518115440818 
-0.0002130207111148642 -0.0001938129664811615 0.0002732793282011674 0.0004283237086597222 -0.0002905160840172722 -7.792363221758672e-05 0.0002885293627489929 -0.0006672172110736407 -0.0005172391583134533 -2.750166443682901e-05 
0.0001174546749734823 4.062095561857338e-05 0.0005829296003010566 -0.001774726079720001 3.603964175367283e-05 -0.0001791617989193054 0.000443698146747242 0.0005283168677322689 0.000544786681975905 -0.0001436455928339805 
0.001056982046933126 -0.0002823269633487395 0.0007525761394537955 0.0003165906622402533 7.402257811319542e-05 0.0005077473830128776 4.43665416787843e-05 0.000272434863931403 0.0007823061105819779 -0.0004295478036793157 
-0.0003696758733009713 -0.0006793633623608511 -0.0002231005103813253 0.00151921917198297 -0.0005816602937495776 6.152020222643861e-05 0.0006198298221180098 0.0004090137243454673 -0.0007972071381065885 -2.836053328075287e-06 
-4.675183608807351e-05 0.0006464236254051612 -0.0002435059962813161 0.0007353235637030878 0.0002876560166619039 0.0002202362072049609 -6.037701612489938e-05 0.0004288839719670102 0.000216517523943823 -0.000161908829920354 
0.0008639188029053661 -0.001536696440047681 0.0004464853715393971 -0.003426393068512753 -0.00078347670145687 -0.0006882939345469498 -9.649669489863124e-05 7.961026732888306e-05 -0.0006915916496274125 -0.0003255931839148284 
-0.0009898995842820559 0.001971639784399338 -1.863623119156871e-05 0.004477288655621589 -0.0008515676192008105 -0.0005262891659023128 0.0005037949888557052 0.0002389125636395762 0.0004805551432074668 0.0001736581933143034 
0.0005431321676811075 -0.0003390984490933038 0.001660126980794406 0.0002006573903356206 0.0001042219039321363 0.0003341443844739479 0.0009481992962030475 -2.500050017620723e-05 -0.001475442737920477 -0.0008340377281428691 
0.002345787081793012 0.0004510832898767903 -0.003704051617571326 0.003303125211507851 -0.003663892183453234 -0.0008712054143919554 2.992912486135896e-06 -9.716687562264837e-05 0.001159461848299462 0.002610635204066927 
-0.003743138436441372 -0.0006802951236813145 -5.27975725961111e-05 -0.006248083964330528 -0.0007401323043358335 0.001813401017354872 -0.01243264254799853 -0.0006005428734164707 0.002138666115408702 -0.005507100467720306 
0.001673901469994006 -0.001999340713509491 0.003886458398225719 -0.003902350451033429 -0.005918105311385416 0.0009005582548672481 -2.752857078576476e-19 -0.002716652965907672 0.002287458919335618 -0.0001456477703540312 
-0.001352252923744167 0.01470524441814977 -0.02013330107342347 -0.006104400774700782 -0.01052263086580836 0.007039031153408176 1.01643953670516e-20 -0.01546326976349285 -0.01311583308869134 -7.527948363500395e-05 
1.18584612615602e-20 -1.989928222995317e-06 -0.01754699284792623 -2.0502561939654e-05 0.004889473740031966 3.520480687025686e-21 -0.00311531668122466 0 0.009861751495455066 -4.171193567781431e-05 
-0.002210982047365267 -1.270549420881451e-21 0 9.682185498732742e-07 -1.311015644394049e-05 -0.000610097050795583 0.0006372470989536587 0 0 -0.0002880328460720386 
-0.008031164295941515 -0.0001115151270182139 -0.01021863594325548 8.187568304152714e-08 -0.004467216082084813 -0.0026200158732991 0.001882630762202273 -0.001960872849153252 0.00139807465410378 -0.001786409252329006 
-0.0009481867328142404 -0.003711920324427124 -0.002263783121336583 5.082197683525802e-21 -0.00361862208774019 0.0002250447924774999 0.00216053858369588 0.0004479431837202204 -0.001543638297442041 -0.01318788865635631 
